{"learner":{"attributes":{"scikit_learn":"{\"_estimator_type\": \"classifier\"}"},"feature_names":[],"feature_types":[],"gradient_booster":{"model":{"gbtree_model_param":{"num_parallel_tree":"1","num_trees":"300"},"iteration_indptr":[0,3,6,9,12,15,18,21,24,27,30,33,36,39,42,45,48,51,54,57,60,63,66,69,72,75,78,81,84,87,90,93,96,99,102,105,108,111,114,117,120,123,126,129,132,135,138,141,144,147,150,153,156,159,162,165,168,171,174,177,180,183,186,189,192,195,198,201,204,207,210,213,216,219,222,225,228,231,234,237,240,243,246,249,252,255,258,261,264,267,270,273,276,279,282,285,288,291,294,297,300],"tree_info":[0,1,2,0,1,2,0,1,2,0,1,2,0,1,2,0,1,2,0,1,2,0,1,2,0,1,2,0,1,2,0,1,2,0,1,2,0,1,2,0,1,2,0,1,2,0,1,2,0,1,2,0,1,2,0,1,2,0,1,2,0,1,2,0,1,2,0,1,2,0,1,2,0,1,2,0,1,2,0,1,2,0,1,2,0,1,2,0,1,2,0,1,2,0,1,2,0,1,2,0,1,2,0,1,2,0,1,2,0,1,2,0,1,2,0,1,2,0,1,2,0,1,2,0,1,2,0,1,2,0,1,2,0,1,2,0,1,2,0,1,2,0,1,2,0,1,2,0,1,2,0,1,2,0,1,2,0,1,2,0,1,2,0,1,2,0,1,2,0,1,2,0,1,2,0,1,2,0,1,2,0,1,2,0,1,2,0,1,2,0,1,2,0,1,2,0,1,2,0,1,2,0,1,2,0,1,2,0,1,2,0,1,2,0,1,2,0,1,2,0,1,2,0,1,2,0,1,2,0,1,2,0,1,2,0,1,2,0,1,2,0,1,2,0,1,2,0,1,2,0,1,2,0,1,2,0,1,2,0,1,2,0,1,2,0,1,2,0,1,2,0,1,2,0,1,2,0,1,2,0,1,2,0,1,2,0,1,2,0,1,2,0,1,2,0,1,2,0,1,2],"trees":[{"base_weights":[1.2074418E-3,-7.302978E-1,3.849923E-1,-2.23763E-1,-3.5294122E-1,4.9360523E-1,-4.4881895E-1,-1.7560977E-1,-1.13207586E-1,5.3079385E-1,-2.0322584E-1,-2.2388065E-1,-2.0000003E-1,2.7272725E-1,-1.5517244E-1,-2.2222267E-2,6.216328E-1,-5.049505E-1,5.5045832E-2,1.2857142E-1,-7.663455E-9,-2.0117651E-1,1.4589661E-1,8.326725E-1,3.8759688E-1,-6.206898E-2,-5.555556E-1,-3.658537E-1,2.7272725E-1,2.3684211E-1,3.2028344E-3,2.7654988E-1,4.5859862E-2,2.3316063E-1,9.211872E-2,-1.894737E-1,-8.181819E-2,-1.5517244E-1,-7.663455E-9,2.1724138E-1,-1.1293513E-8],"categories":[],"categories_nodes":[],"categories_segments":[],"categories_sizes":[],"default_left":[0,0,0,0,0,0,0,0,0,0,0,0,0,0,0,0,0,0,0,0,0,0,0,0,0,0,0,0,0,0,0,0,0,0,0,0,0,0,0,0,0],"id":0,"left_children":[1,3,5,-1,7,9,11,-1,13,15,-1,17,-1,19,-1,21,23,25,27,-1,-1,-1,29,31,33,-1,35,37,39,-1,-1,-1,-1,-1,-1,-1,-1,-1,-1,-1,-1],"loss_changes":[1.5528117E2,8.556671E-1,3.3075672E1,0E0,4.5997667E-1,1.4358086E1,1.9251766E0,0E0,1.0593245E0,1.5692848E1,0E0,1.7786806E0,0E0,1.5584418E-1,0E0,5.0029516E0,1.2919487E1,5.4322243E-2,1.2094226E0,0E0,0E0,0E0,3.1728115E0,8.351479E0,3.808939E0,0E0,2.1265507E-2,2.5231284E-1,1.0532916E0,0E0,0E0,0E0,0E0,0E0,0E0,0E0,0E0,0E0,0E0,0E0,0E0],"parents":[2147483647,0,0,1,1,2,2,4,4,5,5,6,6,8,8,9,9,11,11,13,13,15,15,16,16,17,17,18,18,22,22,23,23,24,24,26,26,27,27,28,28],"right_children":[2,4,6,-1,8,10,12,-1,14,16,-1,18,-1,20,-1,22,24,26,28,-1,-1,-1,30,32,34,-1,36,38,40,-1,-1,-1,-1,-1,-1,-1,-1,-1,-1,-1,-1],"split_conditions":[-3.2171777E-1,-3.9133146E-1,1.3255377E0,-2.23763E-1,5.748967E-1,1.5317609E0,1.5253116E0,-1.7560977E-1,9.733731E-1,-3.079894E-2,-2.0322584E-1,6.977293E-1,-2.0000003E-1,1.8317203E-1,-1.5517244E-1,-5.950576E-1,5.748967E-1,-7.739447E-2,6.247581E-1,1.2857142E-1,-7.663455E-9,-2.0117651E-1,-2.8088763E-1,1.0819757E0,6.3709565E-2,-6.206898E-2,8.480425E-1,1.4086134E0,1.4086134E0,2.3684211E-1,3.2028344E-3,2.7654988E-1,4.5859862E-2,2.3316063E-1,9.211872E-2,-1.894737E-1,-8.181819E-2,-1.5517244E-1,-7.663455E-9,2.1724138E-1,-1.1293513E-8],"split_indices":[1,1,0,0,3,3,0,0,3,1,0,3,0,0,0,0,3,3,1,0,0,0,1,0,0,0,1,0,0,0,0,0,0,0,0,0,0,0,0,0,0],"split_type":[0,0,0,0,0,0,0,0,0,0,0,0,0,0,0,0,0,0,0,0,0,0,0,0,0,0,0,0,0,0,0,0,0,0,0,0,0,0,0,0,0],"sum_hessian":[5.511111E2,1.8933333E2,3.6177777E2,1.8088889E2,8.444444E0,3.2044443E2,4.1333332E1,3.5555553E0,4.8888884E0,3.1111108E2,9.333333E0,2.1333332E1,1.9999998E1,2.6666665E0,2.222222E0,4.3999996E1,2.6711108E2,1.0222221E1,1.1111111E1,1.3333333E0,1.3333333E0,8.444444E0,3.5555553E1,1.391111E2,1.2799999E2,2.222222E0,7.9999995E0,3.5555553E0,7.5555553E0,5.333333E0,3.0222221E1,1.2266666E2,1.6444443E1,2.0444443E1,1.0755555E2,5.333333E0,2.6666665E0,2.222222E0,1.3333333E0,2.222222E0,5.333333E0],"tree_param":{"num_deleted":"0","num_feature":"4","num_nodes":"41","size_leaf_vector":"1"}},{"base_weights":[-2.4150175E-3,1.2885572E0,-7.3935E-1,1.4648649E0,-2.1176474E-1,1.2857142E-1,-7.4501115E-1,4.47538E-1,-1.5517244E-1,-7.663455E-9,-2.2435616E-1],"categories":[],"categories_nodes":[],"categories_segments":[],"categories_sizes":[],"default_left":[0,0,0,0,0,0,0,0,0,0,0],"id":1,"left_children":[1,3,5,7,-1,-1,9,-1,-1,-1,-1],"loss_changes":[5.262105E2,7.171265E1,2.6473846E0,1.0645966E1,0E0,0E0,7.4287415E-1,0E0,0E0,0E0,0E0],"parents":[2147483647,0,0,1,1,2,2,3,3,6,6],"right_children":[2,4,6,8,-1,-1,10,-1,-1,-1,-1],"split_conditions":[-2.593363E-1,-2.4634635E-1,-6.586693E-1,-1.1291847E-1,-2.1176474E-1,1.2857142E-1,-6.102682E-1,4.47538E-1,-1.5517244E-1,-7.663455E-9,-2.2435616E-1],"split_indices":[3,0,0,1,0,0,1,0,0,0,0],"split_type":[0,0,0,0,0,0,0,0,0,0,0],"sum_hessian":[5.511111E2,1.9999998E2,3.5111108E2,1.8399998E2,1.5999999E1,1.3333333E0,3.4977777E2,1.8177777E2,2.222222E0,1.3333333E0,3.4844443E2],"tree_param":{"num_deleted":"0","num_feature":"4","num_nodes":"11","size_leaf_vector":"1"}},{"base_weights":[1.2074418E-3,-7.40697E-1,3.835616E-1,-2.2378673E-1,-2.727273E-1,2.4622741E-1,1.0242634E0,-1.2857145E-1,-7.663455E-9,-1.6797318E-1,4.468085E-1,8.312342E-1,4.1428572E-1,-2.1063831E-1,-6.701713E-2,1.0035588E0,3.440102E-1,9.813084E-1,1.7647055E-1,1.2883432E-1,-4.05694E-1,8.5714287E-1,3.9452055E-1,2.8484845E-1,4.0235296E-1,3.902655E-1,7.741935E-1,-2.0000003E-1,4.897959E-1,8.6746976E-2,-1.0843387E-2,1.6363636E-1,-1.5408562E-1,3.074534E-1,9.6923076E-2,-1.2996404E-2,1.07230894E-1,6.792452E-2,2.7052024E-1,-1.6363637E-1,1.2857142E-1,2.8800002E-1,-9.753488E-9],"categories":[],"categories_nodes":[],"categories_segments":[],"categories_sizes":[],"default_left":[0,0,0,0,0,0,0,0,0,0,0,0,0,0,0,0,0,0,0,0,0,0,0,0,0,0,0,0,0,0,0,0,0,0,0,0,0,0,0,0,0,0,0],"id":2,"left_children":[1,3,5,-1,7,9,11,-1,-1,13,15,17,-1,-1,19,21,23,25,27,29,31,33,-1,35,-1,-1,37,39,41,-1,-1,-1,-1,-1,-1,-1,-1,-1,-1,-1,-1,-1,-1],"loss_changes":[1.5690161E2,2.594757E-1,3.1864239E1,0E0,1.5584415E-1,2.5156221E1,3.266243E0,0E0,0E0,5.303615E0,1.1311207E1,4.1613255E0,0E0,0E0,5.6608667E0,2.9684448E-1,9.85017E0,1.3536034E0,1.2120049E0,1.4475573E0,3.4851933E0,1.8283806E0,0E0,3.9459715E0,0E0,0E0,1.4803314E0,1.3194805E0,1.2538774E0,0E0,0E0,0E0,0E0,0E0,0E0,0E0,0E0,0E0,0E0,0E0,0E0,0E0,0E0],"parents":[2147483647,0,0,1,1,2,2,4,4,5,5,6,6,9,9,10,10,11,11,14,14,15,15,16,16,17,17,18,18,19,19,20,20,21,21,23,23,26,26,27,27,28,28],"right_children":[2,4,6,-1,8,10,12,-1,-1,14,16,18,-1,-1,20,22,24,26,28,30,32,34,-1,36,-1,-1,38,40,42,-1,-1,-1,-1,-1,-1,-1,-1,-1,-1,-1,-1,-1,-1],"split_conditions":[-3.755595E-1,8.0437845E-1,1.1553621E0,-2.2378673E-1,-5.501933E-1,2.0176727E-1,1.5253116E0,-1.2857145E-1,-7.663455E-9,-4.1993204E-1,-2.3120956E-2,1.1061666E0,4.1428572E-1,-2.1063831E-1,6.247581E-1,7.488277E-1,1.5317609E0,3.228424E-1,1.3255377E0,1.9920781E-1,-2.9246953E-1,-2.0881493E-1,3.9452055E-1,6.3709565E-2,4.0235296E-1,3.902655E-1,5.246167E-1,6.7161286E-1,1.3842762E0,8.6746976E-2,-1.0843387E-2,1.6363636E-1,-1.5408562E-1,3.074534E-1,9.6923076E-2,-1.2996404E-2,1.07230894E-1,6.792452E-2,2.7052024E-1,-1.6363637E-1,1.2857142E-1,2.8800002E-1,-9.753488E-9],"split_indices":[0,3,0,0,0,3,0,0,0,3,1,1,0,0,1,0,3,1,0,1,3,1,0,0,0,0,1,3,0,0,0,0,0,0,0,0,0,0,0,0,0,0,0],"split_type":[0,0,0,0,0,0,0,0,0,0,0,0,0,0,0,0,0,0,0,0,0,0,0,0,0,0,0,0,0,0,0,0,0,0,0,0,0,0,0,0,0,0,0],"sum_hessian":[5.511111E2,1.871111E2,3.6399997E2,1.8444443E2,2.6666665E0,3.008889E2,6.3111107E1,1.3333333E0,1.3333333E0,9.822221E1,2.0266666E2,4.3111107E1,1.9999998E1,1.4666666E1,8.355555E1,3.0222221E1,1.7244443E2,3.4666664E1,8.444444E0,5.333333E1,3.0222221E1,2.311111E1,7.1111107E0,1.6399998E2,8.444444E0,1.1555555E1,2.311111E1,3.9999998E0,4.444444E0,2.6666664E1,2.6666664E1,2.6666665E0,2.7555553E1,1.6888887E1,6.222222E0,2.9777777E1,1.3422221E2,4.8888884E0,1.8222221E1,2.6666665E0,1.3333333E0,1.7777777E0,2.6666665E0],"tree_param":{"num_deleted":"0","num_feature":"4","num_nodes":"43","size_leaf_vector":"1"}},{"base_weights":[5.694354E-3,-6.4952385E-1,2.895104E-1,-1.9971259E-1,-2.9345986E-1,3.6571968E-1,-3.8050246E-1,-1.5857156E-1,-6.729598E-2,3.9373994E-1,-5.388074E-1,-1.8752605E-1,-1.7573836E-1,2.8182933E-1,-1.3977854E-1,2.9864416E-1,7.239499E-1,8.115568E-3,-1.8543647E-1,-4.4481477E-1,5.0022278E-2,1.2754829E-1,4.394225E-3,-1.7768453E-1,3.257737E-1,8.072347E-1,-1.5066476E-1,-5.0058976E-2,-4.9532735E-1,-3.33535E-1,2.383347E-1,1.4489079E-1,5.736928E-2,2.8108403E-1,1.4769423E-1,9.807128E-2,-9.821447E-2,-1.7129356E-1,-6.9369055E-2,1.3984124E-2,-1.4971222E-1,1.8485805E-1,-7.969912E-5],"categories":[],"categories_nodes":[],"categories_segments":[],"categories_sizes":[],"default_left":[0,0,0,0,0,0,0,0,0,0,0,0,0,0,0,0,0,0,0,0,0,0,0,0,0,0,0,0,0,0,0,0,0,0,0,0,0,0,0,0,0,0,0],"id":3,"left_children":[1,3,5,-1,7,9,11,-1,13,15,17,19,-1,21,-1,23,25,-1,-1,27,29,-1,-1,-1,31,33,35,-1,37,39,41,-1,-1,-1,-1,-1,-1,-1,-1,-1,-1,-1,-1],"loss_changes":[1.00252045E2,7.436371E-1,1.9345724E1,0E0,4.3622875E-1,8.784954E0,1.4314246E0,0E0,9.201902E-1,1.0104164E1,4.9180174E-1,1.3378158E0,0E0,1.3335672E-1,0E0,6.4016933E0,5.423336E0,0E0,0E0,6.384373E-2,9.527847E-1,0E0,0E0,0E0,5.193508E0,2.2597923E0,7.1220714E-1,0E0,3.4230947E-2,2.999784E-1,7.8385854E-1,0E0,0E0,0E0,0E0,0E0,0E0,0E0,0E0,0E0,0E0,0E0,0E0],"parents":[2147483647,0,0,1,1,2,2,4,4,5,5,6,6,8,8,9,9,10,10,11,11,13,13,15,15,16,16,19,19,20,20,24,24,25,25,26,26,28,28,29,29,30,30],"right_children":[2,4,6,-1,8,10,12,-1,14,16,18,20,-1,22,-1,24,26,-1,-1,28,30,-1,-1,-1,32,34,36,-1,38,40,42,-1,-1,-1,-1,-1,-1,-1,-1,-1,-1,-1,-1],"split_conditions":[-3.2171777E-1,-3.9133146E-1,1.3255377E0,-1.9971259E-1,5.748967E-1,1.5266562E0,1.5253116E0,-1.5857156E-1,9.733731E-1,1.0757449E0,2.3675923E-1,6.977293E-1,-1.7573836E-1,-3.3933318E-1,-1.3977854E-1,-7.3798543E-1,1.5923674E0,8.115568E-3,-1.8543647E-1,-7.739447E-2,6.247581E-1,1.2754829E-1,4.394225E-3,-1.7768453E-1,4.052747E-1,8.529621E-1,1.5953428E-1,-5.0058976E-2,8.480425E-1,9.139947E-1,1.4086134E0,1.4489079E-1,5.736928E-2,2.8108403E-1,1.4769423E-1,9.807128E-2,-9.821447E-2,-1.7129356E-1,-6.9369055E-2,1.3984124E-2,-1.4971222E-1,1.8485805E-1,-7.969912E-5],"split_indices":[1,1,0,0,3,3,0,0,3,1,0,3,0,1,0,0,1,0,0,3,1,0,0,0,3,3,0,0,1,3,0,0,0,0,0,0,0,0,0,0,0,0,0],"split_type":[0,0,0,0,0,0,0,0,0,0,0,0,0,0,0,0,0,0,0,0,0,0,0,0,0,0,0,0,0,0,0,0,0,0,0,0,0,0,0,0,0,0,0],"sum_hessian":[5.3709E2,1.6194197E2,3.7514804E2,1.540692E2,7.8727756E0,3.3724316E2,3.7904884E1,3.2044373E0,4.6683383E0,3.2765775E2,9.585417E0,2.0524822E1,1.7380062E1,2.644913E0,2.023425E0,2.5587407E2,7.1783676E1,1.2593845E0,8.326033E0,9.434157E0,1.1090665E1,1.3366036E0,1.3083093E0,6.9457517E0,2.4892831E2,6.561277E1,6.1709065E0,2.112619E0,7.3215384E0,3.39813E0,7.692535E0,1.1360548E2,1.3532285E2,4.5072685E1,2.0540085E1,1.4371631E0,4.7337437E0,4.7880034E0,2.533535E0,1.248596E0,2.149534E0,2.3648748E0,5.3276606E0],"tree_param":{"num_deleted":"0","num_feature":"4","num_nodes":"43","size_leaf_vector":"1"}},{"base_weights":[-1.5752034E-2,8.846369E-1,-6.666343E-1,9.915248E-1,-1.9183564E-1,1.0208665E-1,-6.724503E-1,3.0240935E-1,-1.391058E-1,-2.2811948E-3,-2.0260668E-1],"categories":[],"categories_nodes":[],"categories_segments":[],"categories_sizes":[],"default_left":[0,0,0,0,0,0,0,0,0,0,0],"id":4,"left_children":[1,3,5,7,-1,-1,9,-1,-1,-1,-1],"loss_changes":[3.0949585E2,3.673268E1,2.0238342E0,5.4506226E0,0E0,0E0,5.8413696E-1,0E0,0E0,0E0,0E0],"parents":[2147483647,0,0,1,1,2,2,3,3,6,6],"right_children":[2,4,6,8,-1,-1,10,-1,-1,-1,-1],"split_conditions":[-2.593363E-1,-2.4634635E-1,-6.586693E-1,-1.1291847E-1,-1.9183564E-1,1.0208665E-1,-6.102682E-1,3.0240935E-1,-1.391058E-1,-2.2811948E-3,-2.0260668E-1],"split_indices":[3,0,0,1,0,0,1,0,0,0,0],"split_type":[0,0,0,0,0,0,0,0,0,0,0],"sum_hessian":[5.2610114E2,2.2059079E2,3.055103E2,2.0646065E2,1.4130144E1,1.4242308E0,3.040861E2,2.0444891E2,2.0117402E0,1.3387668E0,3.0274734E2],"tree_param":{"num_deleted":"0","num_feature":"4","num_nodes":"11","size_leaf_vector":"1"}},{"base_weights":[9.765193E-3,-6.610808E-1,2.9626045E-1,-1.9989192E-1,-2.450205E-1,-9.5247954E-2,4.0719298E-1,9.98898E-3,-1.24262646E-1,-2.1350513E-1,6.315824E-1,3.3523571E-1,8.266869E-1,-1.8957475E-1,-1.1364583E-1,7.15642E-1,-5.617339E-3,6.4806366E-1,2.407884E-1,6.115963E-1,2.8203455E-1,1.4161389E-1,-4.0702304E-1,3.395404E-1,2.5033635E-1,2.2977133E-1,7.545246E-1,1.958595E-1,9.210339E-1,2.4979119E-1,4.0777898E-1,1.07080825E-1,-5.7348263E-2,-9.737106E-3,-1.7089623E-1,2.387316E-1,-4.8563953E-2,2.0635112E-1,-5.059472E-2,1.4682083E-1,2.5145298E-1,8.669554E-2,-1.565022E-2,8.800721E-2,2.9385427E-1,-4.1407317E-2,1.5888427E-1],"categories":[],"categories_nodes":[],"categories_segments":[],"categories_sizes":[],"default_left":[0,0,0,0,0,0,0,0,0,0,0,0,0,0,0,0,0,0,0,0,0,0,0,0,0,0,0,0,0,0,0,0,0,0,0,0,0,0,0,0,0,0,0,0,0,0,0],"id":5,"left_children":[1,3,5,-1,7,9,11,-1,-1,13,15,17,19,-1,21,23,-1,25,27,29,-1,31,33,35,-1,37,39,41,43,-1,45,-1,-1,-1,-1,-1,-1,-1,-1,-1,-1,-1,-1,-1,-1,-1,-1],"loss_changes":[1.033045E2,1.8647003E-1,1.6395947E1,0E0,1.8221901E-1,7.351811E0,8.587166E0,0E0,0E0,2.9766989E0,6.6949224E-1,7.299671E0,4.5740128E-1,0E0,4.560102E0,1.9274044E-1,0E0,2.4062557E0,5.79208E0,4.4760752E-1,0E0,2.4250696E0,1.7012391E0,1.0996217E0,0E0,2.5232341E0,6.041603E-1,4.2784414E0,1.4715767E-1,0E0,8.078939E-1,0E0,0E0,0E0,0E0,0E0,0E0,0E0,0E0,0E0,0E0,0E0,0E0,0E0,0E0,0E0,0E0],"parents":[2147483647,0,0,1,1,2,2,4,4,5,5,6,6,9,9,10,10,11,11,12,12,14,14,15,15,17,17,18,18,19,19,21,21,22,22,23,23,25,25,26,26,27,27,28,28,30,30],"right_children":[2,4,6,-1,8,10,12,-1,-1,14,16,18,20,-1,22,24,-1,26,28,30,-1,32,34,36,-1,38,40,42,44,-1,46,-1,-1,-1,-1,-1,-1,-1,-1,-1,-1,-1,-1,-1,-1,-1,-1],"split_conditions":[-3.755595E-1,8.0437845E-1,9.249666E-2,-1.9989192E-1,3.228424E-1,1.0998913E0,1.3255377E0,9.98898E-3,-1.24262646E-1,-4.1993204E-1,8.480425E-1,8.691071E-2,1.4809172E0,-1.8957475E-1,4.7239402E-1,1.1553621E0,-5.617339E-3,4.052747E-1,1.5266562E0,6.977293E-1,2.8203455E-1,-8.309217E-2,-2.1123552E-1,1.1119548E0,2.5033635E-1,-2.1319228E-1,2.1091147E-1,1.0757449E0,2.3675923E-1,2.4979119E-1,8.8324946E-1,1.07080825E-1,-5.7348263E-2,-9.737106E-3,-1.7089623E-1,2.387316E-1,-4.8563953E-2,2.0635112E-1,-5.059472E-2,1.4682083E-1,2.5145298E-1,8.669554E-2,-1.565022E-2,8.800721E-2,2.9385427E-1,-4.1407317E-2,1.5888427E-1],"split_indices":[0,3,3,0,1,0,0,0,0,3,1,1,0,0,1,0,0,3,3,3,0,3,3,0,0,1,0,1,0,0,3,0,0,0,0,0,0,0,0,0,0,0,0,0,0,0,0],"split_type":[0,0,0,0,0,0,0,0,0,0,0,0,0,0,0,0,0,0,0,0,0,0,0,0,0,0,0,0,0,0,0,0,0,0,0,0,0,0,0,0,0,0,0,0,0,0,0],"sum_hessian":[5.3548157E2,1.5985767E2,3.756239E2,1.572808E2,2.5768619E0,8.296417E1,2.9265973E2,1.2778989E0,1.2989631E0,7.196201E1,1.1002154E1,2.5134483E2,4.1314903E1,1.2838907E1,5.9123108E1,9.65382E0,1.3483342E0,5.6927658E1,1.9441718E2,1.647181E1,2.4843096E1,3.1892014E1,2.7231096E1,3.2436893E0,6.410131E0,1.2190114E1,4.473754E1,1.8358E2,1.0837179E1,6.4219537E0,1.0049855E1,1.931902E1,1.2572994E1,8.607101E0,1.8623993E1,1.3910065E0,1.852683E0,5.332689E0,6.8574257E0,1.237317E1,3.2364372E1,1.3334746E2,5.023254E1,1.4364051E0,9.400774E0,1.8097177E0,8.240138E0],"tree_param":{"num_deleted":"0","num_feature":"4","num_nodes":"47","size_leaf_vector":"1"}},{"base_weights":[1.0618237E-2,-6.0277146E-1,2.2589035E-1,-1.8444555E-1,-2.6645383E-1,3.1611678E-1,-1.13922656E-1,-1.5543951E-1,5.4063294E-2,-1.6857153E-1,3.3664188E-1,-1.3712998E-2,-5.25267E-1,4.7065458E-1,1.835329E-1,-4.292148E-1,5.1495027E-2,-2.4696964E-1,-1.7354792E-1,-1.2989299E-1,4.855043E-1,2.2039644E-1,-1.631247E-1,-1.1713608E-1,-1.7886539E-1,8.848072E-2,-1.5188317E-1,2.3281718E-2,-1.2492954E-1,1.1080409E-1,1.7772275E-1,2.9345239E-2,1.15871355E-1,6.93582E-2,-1.3061178E-1,1.075745E-3,1.015187E-1],"categories":[],"categories_nodes":[],"categories_segments":[],"categories_sizes":[],"default_left":[0,0,0,0,0,0,0,0,0,0,0,0,0,0,0,0,0,0,0,0,0,0,0,0,0,0,0,0,0,0,0,0,0,0,0,0,0],"id":6,"left_children":[1,3,5,-1,7,9,11,-1,-1,-1,13,15,17,19,21,23,25,27,-1,-1,29,31,-1,33,-1,35,-1,-1,-1,-1,-1,-1,-1,-1,-1,-1,-1],"loss_changes":[6.756471E1,3.7475586E-1,1.1647486E1,0E0,8.0853593E-1,5.5870037E0,3.2984216E0,0E0,0E0,0E0,5.931835E0,1.7970577E0,8.942938E-2,2.3004074E0,3.8340845E0,3.9889276E-1,1.2313532E0,2.6678386E-1,0E0,0E0,1.6900635E0,2.657125E0,0E0,5.8613926E-1,0E0,1.1612749E0,0E0,0E0,0E0,0E0,0E0,0E0,0E0,0E0,0E0,0E0,0E0],"parents":[2147483647,0,0,1,1,2,2,4,4,5,5,6,6,10,10,11,11,12,12,13,13,14,14,15,15,16,16,17,17,20,20,21,21,23,23,25,25],"right_children":[2,4,6,-1,8,10,12,-1,-1,-1,14,16,18,20,22,24,26,28,-1,-1,30,32,-1,34,-1,36,-1,-1,-1,-1,-1,-1,-1,-1,-1,-1,-1],"split_conditions":[-3.3933318E-1,-3.9133146E-1,1.0574584E0,-1.8444555E-1,1.733447E-1,-5.520938E-1,1.5253116E0,-1.5543951E-1,5.4063294E-2,-1.6857153E-1,5.429511E-1,7.702302E-2,1.6036396E0,-7.3798543E-1,1.5317609E0,-1.8285272E-1,1.4614662E0,8.6671686E-1,-1.7354792E-1,-1.2989299E-1,5.375435E-1,8.106446E-1,-1.631247E-1,9.249666E-2,-1.7886539E-1,1.1061666E0,-1.5188317E-1,2.3281718E-2,-1.2492954E-1,1.1080409E-1,1.7772275E-1,2.9345239E-2,1.15871355E-1,6.93582E-2,-1.3061178E-1,1.075745E-3,1.015187E-1],"split_indices":[1,1,0,0,0,3,0,0,0,0,3,1,0,0,3,1,3,1,0,0,1,1,0,3,0,1,0,0,0,0,0,0,0,0,0,0,0],"split_type":[0,0,0,0,0,0,0,0,0,0,0,0,0,0,0,0,0,0,0,0,0,0,0,0,0,0,0,0,0,0,0,0,0,0,0,0,0],"sum_hessian":[5.0964557E2,1.3192955E2,3.7771603E2,1.2656778E2,5.361775E0,2.9852267E2,7.919337E1,3.3270905E0,2.0346842E0,6.216505E0,2.9230615E2,6.451089E1,1.4682484E1,1.5476765E2,1.375385E2,7.993638E0,5.6517246E1,3.262774E0,1.1419709E1,2.0470011E0,1.5272066E2,1.3156676E2,5.9717326E0,3.379593E0,4.614045E0,5.3791702E1,2.7255428E0,1.3051096E0,1.9576645E0,7.532801E1,7.739265E1,7.656489E1,5.5001877E1,1.7440903E0,1.6355026E0,4.0909344E1,1.28823595E1],"tree_param":{"num_deleted":"0","num_feature":"4","num_nodes":"37","size_leaf_vector":"1"}},{"base_weights":[-3.0680848E-2,7.1028584E-1,-6.205103E-1,7.94938E-1,-1.7808244E-1,8.406848E-2,-6.266021E-1,2.4251404E-1,-1.2650527E-1,-2.473963E-3,-1.8891606E-1],"categories":[],"categories_nodes":[],"categories_segments":[],"categories_sizes":[],"default_left":[0,0,0,0,0,0,0,0,0,0,0],"id":7,"left_children":[1,3,5,7,-1,-1,9,-1,-1,-1,-1],"loss_changes":[2.0560623E2,2.3488785E1,1.6127319E0,3.5502243E0,0E0,0E0,4.9699402E-1,0E0,0E0,0E0,0E0],"parents":[2147483647,0,0,1,1,2,2,3,3,6,6],"right_children":[2,4,6,8,-1,-1,10,-1,-1,-1,-1],"split_conditions":[-2.593363E-1,-2.4634635E-1,-6.586693E-1,-1.1291847E-1,-1.7808244E-1,8.406848E-2,-6.102682E-1,2.4251404E-1,-1.2650527E-1,-2.473963E-3,-1.8891606E-1],"split_indices":[3,0,0,1,0,0,1,0,0,0,0],"split_type":[0,0,0,0,0,0,0,0,0,0,0],"sum_hessian":[4.6843906E2,2.0752892E2,2.6091013E2,1.9524353E2,1.2285388E1,1.4504151E0,2.5945972E2,1.9344182E2,1.8017225E0,1.320041E0,2.5813968E2],"tree_param":{"num_deleted":"0","num_feature":"4","num_nodes":"11","size_leaf_vector":"1"}},{"base_weights":[1.769812E-2,-6.101852E-1,2.3984168E-1,-1.85075E-1,-2.4535514E-1,1.431531E-1,5.3496027E-1,-1.24238975E-1,2.969901E-2,-1.4422369E-1,2.6561773E-1,4.5171022E-1,2.2201622E-1,-1.7483044E-1,-7.208932E-2,4.2498234E-1,1.2874733E-1,5.0913864E-1,1.868913E-1,1.6235884E-2,-5.286708E-1,2.837211E-1,3.919867E-1,-2.1933867E-1,2.065711E-1,6.221084E-1,3.6627024E-1,-1.21822745E-1,5.8251715E-1,4.1012406E-2,-9.233539E-2,-1.8058477E-1,2.2634478E-2,3.491674E-2,1.4142844E-1,7.557555E-3,-1.8691227E-1,4.4613335E-2,2.1804197E-1,1.4732552E-1,2.3071362E-1,-1.255046E-1,1.4883484E-1,-9.689191E-2,1.1277809E-1,2.3039337E-1,-1.1502483E-2],"categories":[],"categories_nodes":[],"categories_segments":[],"categories_sizes":[],"default_left":[0,0,0,0,0,0,0,0,0,0,0,0,0,0,0,0,0,0,0,0,0,0,0,0,0,0,0,0,0,0,0,0,0,0,0,0,0,0,0,0,0,0,0,0,0,0,0],"id":8,"left_children":[1,3,5,-1,7,9,11,-1,-1,13,15,17,-1,-1,19,21,23,25,27,29,31,-1,33,35,37,39,41,43,45,-1,-1,-1,-1,-1,-1,-1,-1,-1,-1,-1,-1,-1,-1,-1,-1,-1,-1],"loss_changes":[7.092339E1,1.7499161E-1,1.063932E1,0E0,2.7741575E-1,1.0041412E1,1.2417984E0,0E0,0E0,2.6652148E0,4.3001623E0,9.4241047E-1,0E0,0E0,3.0183253E0,1.2068424E0,2.993741E0,6.6767216E-1,1.7489034E0,2.5210268E0,5.8226967E-1,0E0,1.8728561E0,2.0268497E0,2.5849795E0,1.9130325E-1,2.9514132E0,9.768454E-1,7.4271345E-1,0E0,0E0,0E0,0E0,0E0,0E0,0E0,0E0,0E0,0E0,0E0,0E0,0E0,0E0,0E0,0E0,0E0,0E0],"parents":[2147483647,0,0,1,1,2,2,4,4,5,5,6,6,9,9,10,10,11,11,14,14,15,15,16,16,17,17,18,18,19,19,20,20,22,22,23,23,24,24,25,25,26,26,27,27,28,28],"right_children":[2,4,6,-1,8,10,12,-1,-1,14,16,18,-1,-1,20,22,24,26,28,30,32,-1,34,36,38,40,42,44,46,-1,-1,-1,-1,-1,-1,-1,-1,-1,-1,-1,-1,-1,-1,-1,-1,-1,-1],"split_conditions":[-3.755595E-1,-3.9890072E-1,1.0713764E0,-1.85075E-1,1.539411E-1,2.0176727E-1,1.4809172E0,-1.24238975E-1,2.969901E-2,-4.1993204E-1,5.375435E-1,1.1061666E0,2.2201622E-1,-1.7483044E-1,1.1061666E0,-2.52371E-1,4.379375E-2,6.977293E-1,7.501108E-1,6.021021E-1,1.6760182E-1,2.837211E-1,2.1091147E-1,1.0151683E0,1.4770513E0,5.559106E-1,8.228612E-1,1.3255377E0,1.3382919E0,4.1012406E-2,-9.233539E-2,-1.8058477E-1,2.2634478E-2,3.491674E-2,1.4142844E-1,7.557555E-3,-1.8691227E-1,4.4613335E-2,2.1804197E-1,1.4732552E-1,2.3071362E-1,-1.255046E-1,1.4883484E-1,-9.689191E-2,1.1277809E-1,2.3039337E-1,-1.1502483E-2],"split_indices":[0,0,0,0,3,3,0,0,0,3,1,1,0,0,1,0,0,3,3,0,3,0,0,1,3,1,3,0,0,0,0,0,0,0,0,0,0,0,0,0,0,0,0,0,0,0,0],"split_type":[0,0,0,0,0,0,0,0,0,0,0,0,0,0,0,0,0,0,0,0,0,0,0,0,0,0,0,0,0,0,0,0,0,0,0,0,0,0,0,0,0,0,0,0,0,0,0],"sum_hessian":[5.064342E2,1.3189354E2,3.7454065E2,1.2882564E2,3.0679078E0,2.8323163E2,9.130904E1,1.9228425E0,1.1450654E0,8.45793E1,1.9865233E2,6.722432E1,2.4084717E1,1.0947077E1,7.363222E1,9.081139E1,1.07840935E2,5.448595E1,1.2738372E1,6.250511E1,1.1127108E1,3.762779E0,8.7048615E1,1.9372822E1,8.846812E1,2.855352E1,2.593243E1,7.5438466E0,5.1945252E0,4.5985577E1,1.6519537E1,9.9266205E0,1.2004876E0,2.002906E1,6.7019554E1,1.2648792E1,6.7240295E0,8.077074E1,7.697377E0,1.738949E1,1.116403E1,3.3666873E0,2.2565742E1,5.6227274E0,1.9211192E0,3.8172803E0,1.3772448E0],"tree_param":{"num_deleted":"0","num_feature":"4","num_nodes":"47","size_leaf_vector":"1"}},{"base_weights":[1.5586377E-2,-5.7393986E-1,1.8211634E-1,-1.744624E-1,-2.2577365E-1,2.242283E-1,-2.7428403E-1,4.1857347E-2,-1.2162218E-1,2.3881666E-1,-1.5508412E-1,-1.4161861E-1,-1.6124527E-1,-3.1269267E-2,2.8284997E-1,-1.5838845E-1,-1.7604722E-2,-3.7319365E-1,9.744068E-2,4.8198268E-1,2.2667193E-1,-1.4607774E-1,8.154003E-2,-1.6965021E-1,2.1202598E-2,9.8912686E-2,-2.676329E-2,1.550931E-1,-1.6622642E-2,7.20731E-2,-1.1329259E-1,4.9912035E-2,-1.208964E-1],"categories":[],"categories_nodes":[],"categories_segments":[],"categories_sizes":[],"default_left":[0,0,0,0,0,0,0,0,0,0,0,0,0,0,0,0,0,0,0,0,0,0,0,0,0,0,0,0,0,0,0,0,0],"id":9,"left_children":[1,3,5,-1,7,9,11,-1,-1,13,-1,15,-1,17,19,-1,21,23,25,27,29,-1,31,-1,-1,-1,-1,-1,-1,-1,-1,-1,-1],"loss_changes":[4.7085907E1,1.483078E-1,7.2479362E0,0E0,3.1195027E-1,3.8307495E0,1.0424864E0,0E0,0E0,4.0159473E0,0E0,1.07626E0,0E0,2.1546166E0,3.1327438E0,0E0,8.8592124E-1,1.1812453E0,1.5798063E0,1.2111454E0,1.9600601E0,0E0,7.194089E-1,0E0,0E0,0E0,0E0,0E0,0E0,0E0,0E0,0E0,0E0],"parents":[2147483647,0,0,1,1,2,2,4,4,5,5,6,6,9,9,11,11,13,13,14,14,16,16,17,17,18,18,19,19,20,20,22,22],"right_children":[2,4,6,-1,8,10,12,-1,-1,14,-1,16,-1,18,20,-1,22,24,26,28,30,-1,32,-1,-1,-1,-1,-1,-1,-1,-1,-1,-1],"split_conditions":[-3.510946E-1,8.650655E-1,1.3255377E0,-1.744624E-1,1.0040554E0,1.5317609E0,1.6036396E0,4.1857347E-2,-1.2162218E-1,-2.3120956E-2,-1.5508412E-1,3.91099E-1,-1.6124527E-1,-2.398939E-1,4.794949E-2,-1.5838845E-1,1.3569378E0,-2.2631209E-1,4.052747E-1,1.0574584E0,1.6193497E0,-1.4607774E-1,1.4614662E0,-1.6965021E-1,2.1202598E-2,9.8912686E-2,-2.676329E-2,1.550931E-1,-1.6622642E-2,7.20731E-2,-1.1329259E-1,4.9912035E-2,-1.208964E-1],"split_indices":[1,3,0,0,3,3,0,0,0,1,0,1,0,3,3,0,0,0,3,0,1,0,3,0,0,0,0,0,0,0,0,0,0],"split_type":[0,0,0,0,0,0,0,0,0,0,0,0,0,0,0,0,0,0,0,0,0,0,0,0,0,0,0,0,0,0,0,0,0],"sum_hessian":[4.7755322E2,1.0464766E2,3.7290558E2,1.0175575E2,2.8919039E0,3.4187E2,3.1035566E1,1.0269034E0,1.8650005E0,3.3593567E2,5.934351E0,2.1657314E1,9.378252E0,4.7132175E1,2.8880347E2,4.4711075E0,1.7186207E1,1.2370317E1,3.476186E1,6.187993E1,2.2692355E2,2.3152514E0,1.48709545E1,8.439754E0,3.930564E0,1.5146812E1,1.9615046E1,5.8132397E1,3.7475297E0,2.2252844E2,4.3951077E0,1.3214012E1,1.6569428E0],"tree_param":{"num_deleted":"0","num_feature":"4","num_nodes":"33","size_leaf_vector":"1"}},{"base_weights":[-4.7718532E-2,6.1224174E-1,-5.8855003E-1,6.881447E-1,-1.677225E-1,6.9796994E-2,-5.94993E-1,2.1021998E-1,-1.1663678E-1,-4.902446E-3,-1.7951193E-1],"categories":[],"categories_nodes":[],"categories_segments":[],"categories_sizes":[],"default_left":[0,0,0,0,0,0,0,0,0,0,0],"id":10,"left_children":[1,3,5,7,-1,-1,9,-1,-1,-1,-1],"loss_changes":[1.4380956E2,1.6521606E1,1.3098297E0,2.5894241E0,0E0,0E0,4.2044067E-1,0E0,0E0,0E0,0E0],"parents":[2147483647,0,0,1,1,2,2,3,3,6,6],"right_children":[2,4,6,8,-1,-1,10,-1,-1,-1,-1],"split_conditions":[-2.593363E-1,-2.4634635E-1,-6.586693E-1,-1.1291847E-1,-1.677225E-1,6.9796994E-2,-6.102682E-1,2.1021998E-1,-1.1663678E-1,-4.902446E-3,-1.7951193E-1],"split_indices":[3,0,0,1,0,0,1,0,0,0,0],"split_type":[0,0,0,0,0,0,0,0,0,0,0],"sum_hessian":[4.0090033E2,1.8050432E2,2.20396E2,1.6990665E2,1.059768E1,1.4423867E0,2.1895361E2,1.682888E2,1.617839E0,1.3054432E0,2.1764816E2],"tree_param":{"num_deleted":"0","num_feature":"4","num_nodes":"11","size_leaf_vector":"1"}},{"base_weights":[2.4699591E-2,-5.7486326E-1,1.9926052E-1,-1.7477456E-1,-2.1595787E-1,1.2533276E-1,4.2774785E-1,-1.1465436E-1,2.7729064E-2,-1.0776695E-1,2.2003819E-1,3.6869162E-1,2.0330004E-1,-1.6350351E-1,-4.4692587E-2,5.406498E-1,1.7786132E-1,6.062763E-1,3.2297775E-1,1.985854E-1,-1.8322165E-1,6.3458115E-1,2.9851723E-1,1.5178593E-1,1.9710672E-1,4.187622E-2,1.9816624E-1,2.8524864E-1,2.0045456E-1,1.2915865E-1,-1.101109E-2,-2.7728362E-2,-1.4368117E-1,1.2559153E-1,2.3154785E-1,-9.733289E-2,1.6509707E-1,5.614765E-2,-5.1765345E-2,1.5165737E-1,6.1052885E-2],"categories":[],"categories_nodes":[],"categories_segments":[],"categories_sizes":[],"default_left":[0,0,0,0,0,0,0,0,0,0,0,0,0,0,0,0,0,0,0,0,0,0,0,0,0,0,0,0,0,0,0,0,0,0,0,0,0,0,0,0,0],"id":11,"left_children":[1,3,5,-1,7,9,11,-1,-1,13,15,17,-1,-1,19,21,23,25,27,29,31,33,35,37,-1,-1,-1,39,-1,-1,-1,-1,-1,-1,-1,-1,-1,-1,-1,-1,-1],"loss_changes":[4.9772522E1,1.7128372E-1,6.166212E0,0E0,2.3252389E-1,6.196567E0,1.0725822E0,0E0,0E0,2.2221074E0,2.5970259E0,6.151438E-1,0E0,0E0,2.4721694E0,3.2603598E-1,2.1180234E0,1.8411684E-1,6.528406E-1,1.47311E0,1.2061696E0,1.3451433E-1,1.4684533E0,1.978534E0,0E0,0E0,0E0,9.7965145E-1,0E0,0E0,0E0,0E0,0E0,0E0,0E0,0E0,0E0,0E0,0E0,0E0,0E0],"parents":[2147483647,0,0,1,1,2,2,4,4,5,5,6,6,9,9,10,10,11,11,14,14,15,15,16,16,17,17,18,18,19,19,20,20,21,21,22,22,23,23,27,27],"right_children":[2,4,6,-1,8,10,12,-1,-1,14,16,18,-1,-1,20,22,24,26,28,30,32,34,36,38,-1,-1,-1,40,-1,-1,-1,-1,-1,-1,-1,-1,-1,-1,-1,-1,-1],"split_conditions":[-3.755595E-1,-3.9890072E-1,1.0713764E0,-1.7477456E-1,1.539411E-1,2.0176727E-1,1.6036396E0,-1.1465436E-1,2.7729064E-2,-4.1993204E-1,-2.0881493E-1,7.702302E-2,2.0330004E-1,-1.6350351E-1,1.9920781E-1,8.650655E-1,1.5317609E0,-1.8984947E-1,1.4614662E0,-8.309217E-2,1.1061666E0,3.224125E-1,9.733731E-1,1.3166468E0,1.9710672E-1,4.187622E-2,1.9816624E-1,2.5842378E-1,2.0045456E-1,1.2915865E-1,-1.101109E-2,-2.7728362E-2,-1.4368117E-1,1.2559153E-1,2.3154785E-1,-9.733289E-2,1.6509707E-1,5.614765E-2,-5.1765345E-2,1.5165737E-1,6.1052885E-2],"split_indices":[0,0,0,0,3,3,0,0,0,3,1,1,0,0,1,3,3,3,3,3,1,0,3,3,0,0,0,3,0,0,0,0,0,0,0,0,0,0,0,0,0],"split_type":[0,0,0,0,0,0,0,0,0,0,0,0,0,0,0,0,0,0,0,0,0,0,0,0,0,0,0,0,0,0,0,0,0,0,0,0,0,0,0,0,0],"sum_hessian":[4.7346835E2,1.06247574E2,3.6722076E2,1.0340064E2,2.846933E0,2.7862073E2,8.860005E1,1.6943693E0,1.1525636E0,8.045583E1,1.9816489E2,7.366754E1,1.4932507E1,9.179667E0,7.127617E1,2.1664148E1,1.7650075E2,9.908509E0,6.3759033E1,2.5703466E1,4.55727E1,1.4441141E1,7.223008E0,1.686403E2,7.860438E0,1.4044604E0,8.504049E0,5.9123444E1,4.635588E0,1.2525894E1,1.3177572E1,3.587158E1,9.701123E0,7.185577E0,7.2555637E0,1.9961468E0,5.2268615E0,1.5243803E2,1.620227E1,1.4598306E1,4.452514E1],"tree_param":{"num_deleted":"0","num_feature":"4","num_nodes":"41","size_leaf_vector":"1"}},{"base_weights":[1.8759973E-2,-5.479355E-1,1.4848593E-1,-1.6711356E-1,-1.936049E-1,1.8118781E-1,-2.3287942E-1,3.9577834E-2,-1.1100461E-1,1.3205902E-1,3.5416672E-1,-1.1646107E-1,-1.508751E-1,-1.4116769E-1,1.4387429E-1,4.017261E-1,-1.5973377E-1,-1.4784524E-1,-5.986756E-3,6.283866E-1,1.2638795E-1,4.6813968E-1,-2.3891516E-1,-1.3518108E-1,8.183116E-2,-1.579792E-3,2.1522449E-1,4.3539997E-2,-6.5629914E-2,2.1582177E-1,1.1478723E-1,5.719045E-2,-1.14089385E-1,4.5333736E-2,-1.0836717E-1],"categories":[],"categories_nodes":[],"categories_segments":[],"categories_sizes":[],"default_left":[0,0,0,0,0,0,0,0,0,0,0,0,0,0,0,0,0,0,0,0,0,0,0,0,0,0,0,0,0,0,0,0,0,0,0],"id":12,"left_children":[1,3,5,-1,7,9,11,-1,-1,13,15,17,-1,-1,19,21,-1,-1,23,25,27,29,31,-1,33,-1,-1,-1,-1,-1,-1,-1,-1,-1,-1],"loss_changes":[3.301603E1,1.6220856E-1,4.5984135E0,0E0,2.5726137E-1,2.8175097E0,8.622502E-1,0E0,0E0,1.94802E0,3.3324375E0,9.0212715E-1,0E0,0E0,2.1214738E0,3.1225777E0,0E0,0E0,7.3347473E-1,5.000465E-1,1.6620526E0,1.1096573E0,5.163666E-1,0E0,5.378709E-1,0E0,0E0,0E0,0E0,0E0,0E0,0E0,0E0,0E0,0E0],"parents":[2147483647,0,0,1,1,2,2,4,4,5,5,6,6,9,9,10,10,11,11,14,14,15,15,18,18,19,19,20,20,21,21,22,22,24,24],"right_children":[2,4,6,-1,8,10,12,-1,-1,14,16,18,-1,-1,20,22,-1,-1,24,26,28,30,32,-1,34,-1,-1,-1,-1,-1,-1,-1,-1,-1,-1],"split_conditions":[-3.510946E-1,8.650655E-1,1.3255377E0,-1.6711356E-1,1.0040554E0,1.0757449E0,1.6036396E0,3.9577834E-2,-1.1100461E-1,-5.520938E-1,1.4770513E0,3.91099E-1,-1.508751E-1,-1.4116769E-1,-3.834468E-1,1.5923674E0,-1.5973377E-1,-1.4784524E-1,1.3569378E0,-5.950576E-1,1.0020924E0,4.379375E-2,1.5953428E-1,-1.3518108E-1,1.4614662E0,-1.579792E-3,2.1522449E-1,4.3539997E-2,-6.5629914E-2,2.1582177E-1,1.1478723E-1,5.719045E-2,-1.14089385E-1,4.5333736E-2,-1.0836717E-1],"split_indices":[1,3,0,0,3,1,0,0,0,3,3,1,0,0,3,1,0,0,0,0,1,0,0,0,3,0,0,0,0,0,0,0,0,0,0],"split_type":[0,0,0,0,0,0,0,0,0,0,0,0,0,0,0,0,0,0,0,0,0,0,0,0,0,0,0,0,0,0,0,0,0,0,0],"sum_hessian":[4.4699866E2,8.26642E1,3.6433447E2,8.003444E1,2.6297626E0,3.360438E2,2.8290682E1,1.012871E0,1.6168915E0,2.6308646E2,7.295732E1,2.0768335E1,7.522348E0,4.312415E0,2.5877405E2,6.976206E1,3.1952562E0,3.9274936E0,1.6840841E1,7.7970505E0,2.50977E2,6.3453293E1,6.3087687E0,2.096298E0,1.4744543E1,1.0764376E0,6.7206125E0,2.3859822E2,1.2378779E1,1.4229852E1,4.9223442E1,1.4760041E0,4.8327646E0,1.332052E1,1.4240226E0],"tree_param":{"num_deleted":"0","num_feature":"4","num_nodes":"35","size_leaf_vector":"1"}},{"base_weights":[-6.698557E-2,5.509765E-1,-5.6558365E-1,6.231634E-1,-1.5879878E-1,5.6889754E-2,-5.723321E-1,1.906593E-1,-1.0618038E-1,-2.2489931E-3,-1.7283526E-1],"categories":[],"categories_nodes":[],"categories_segments":[],"categories_sizes":[],"default_left":[0,0,0,0,0,0,0,0,0,0,0],"id":13,"left_children":[1,3,5,7,-1,-1,9,-1,-1,-1,-1],"loss_changes":[1.03913536E2,1.2078602E1,1.0594902E0,1.9370308E0,0E0,0E0,3.9162827E-1,0E0,0E0,0E0,0E0],"parents":[2147483647,0,0,1,1,2,2,3,3,6,6],"right_children":[2,4,6,8,-1,-1,10,-1,-1,-1,-1],"split_conditions":[-2.593363E-1,-2.4634635E-1,-6.586693E-1,-1.1291847E-1,-1.5879878E-1,5.6889754E-2,-6.102682E-1,1.906593E-1,-1.0618038E-1,-2.2489931E-3,-1.7283526E-1],"split_indices":[3,0,0,1,0,0,1,0,0,0,0],"split_type":[0,0,0,0,0,0,0,0,0,0,0],"sum_hessian":[3.352446E2,1.49656E2,1.855886E2,1.406789E2,8.977118E0,1.4036782E0,1.841849E2,1.3926572E2,1.4131743E0,1.2459981E0,1.8293892E2],"tree_param":{"num_deleted":"0","num_feature":"4","num_nodes":"11","size_leaf_vector":"1"}},{"base_weights":[3.1861585E-2,-5.4923034E-1,1.6989017E-1,-1.6732933E-1,-1.6149706E-1,-1.461132E-1,1.8825316E-1,-1.0108828E-1,2.3647398E-2,1.2574786E-1,3.4862754E-1,1.7306042E-1,-1.3894139E-1,2.9655236E-1,1.7057915E-1,7.9715885E-2,2.6367527E-1,-2.3332375E-1,5.476427E-1,6.1325383E-1,2.6639017E-1,4.456128E-2,-4.2657245E-2,4.8911016E-2,1.17145814E-1,-9.257244E-2,1.9205384E-1,6.129184E-2,2.0343383E-1,2.3382337E-1,9.5611356E-2,-1.10976316E-1,8.790041E-2],"categories":[],"categories_nodes":[],"categories_segments":[],"categories_sizes":[],"default_left":[0,0,0,0,0,0,0,0,0,0,0,0,0,0,0,0,0,0,0,0,0,0,0,0,0,0,0,0,0,0,0,0,0],"id":14,"left_children":[1,3,5,-1,7,-1,9,-1,-1,11,13,15,17,19,-1,21,23,25,27,29,31,-1,-1,-1,-1,-1,-1,-1,-1,-1,-1,-1,-1],"loss_changes":[3.5636257E1,1.9215393E-1,4.4205475E0,0E0,1.6337073E-1,0E0,3.4627342E0,0E0,0E0,3.1957965E0,9.486723E-1,1.8001609E0,2.6525235E0,6.0996914E-1,0E0,1.6627233E0,1.3250923E0,2.4951344E0,8.576274E-2,5.854869E-2,1.3899655E0,0E0,0E0,0E0,0E0,0E0,0E0,0E0,0E0,0E0,0E0,0E0,0E0],"parents":[2147483647,0,0,1,1,2,2,4,4,6,6,9,9,10,10,11,11,12,12,13,13,15,15,16,16,17,17,18,18,19,19,20,20],"right_children":[2,4,6,-1,8,-1,10,-1,-1,12,14,16,18,20,-1,22,24,26,28,30,32,-1,-1,-1,-1,-1,-1,-1,-1,-1,-1,-1,-1],"split_conditions":[-3.755595E-1,8.0437845E-1,-3.834468E-1,-1.6732933E-1,-5.501933E-1,-1.461132E-1,1.0116E0,-1.0108828E-1,2.3647398E-2,1.1622262E0,1.5253116E0,6.019332E-1,1.6193497E0,1.0423632E0,1.7057915E-1,6.188431E-1,5.3133506E-1,1.4770513E0,5.429511E-1,9.215596E-1,1.0482587E0,4.456128E-2,-4.2657245E-2,4.8911016E-2,1.17145814E-1,-9.257244E-2,1.9205384E-1,6.129184E-2,2.0343383E-1,2.3382337E-1,9.5611356E-2,-1.10976316E-1,8.790041E-2],"split_indices":[0,3,3,0,0,0,0,0,0,1,0,3,1,0,0,0,0,3,3,1,0,0,0,0,0,0,0,0,0,0,0,0,0],"split_type":[0,0,0,0,0,0,0,0,0,0,0,0,0,0,0,0,0,0,0,0,0,0,0,0,0,0,0,0,0,0,0,0,0],"sum_hessian":[4.4213858E2,8.429263E1,3.5784595E2,8.204821E1,2.2444184E0,9.036681E0,3.4880927E2,1.0648355E0,1.1795828E0,2.522715E2,9.653778E1,2.1431023E2,3.7961266E1,7.9957054E1,1.6580725E1,1.06491E2,1.0781924E2,3.3953903E1,4.0073595E0,5.271776E0,7.468528E1,8.153463E1,2.4956366E1,6.1387253E1,4.6431984E1,3.1856272E1,2.0976331E0,1.8100559E0,2.1973035E0,2.318039E0,2.9537373E0,2.480158E0,7.220512E1],"tree_param":{"num_deleted":"0","num_feature":"4","num_nodes":"33","size_leaf_vector":"1"}},{"base_weights":[2.2518694E-2,-5.282789E-1,1.2425995E-1,-1.6184592E-1,-1.7006843E-1,1.3720615E-1,-1.4870703E-1,3.937382E-2,-1.0414461E-1,1.7621174E-1,-3.3654604E-2,9.199531E-2,2.565845E-1,8.90302E-3,-1.3809828E-1,-1.323941E-1,1.08830936E-1,4.616789E-1,1.8677774E-1,-3.5440794E-1,4.447515E-2,5.7594858E-2,-1.8759472E-4,9.2308864E-2,1.9850034E-1,-5.060345E-3,8.338977E-2,1.43346945E-2,-1.7504758E-1,2.078778E-1,2.407262E-3],"categories":[],"categories_nodes":[],"categories_segments":[],"categories_sizes":[],"default_left":[0,0,0,0,0,0,0,0,0,0,0,0,0,0,0,0,0,0,0,0,0,0,0,0,0,0,0,0,0,0,0],"id":15,"left_children":[1,3,5,-1,7,9,-1,-1,-1,11,13,15,17,19,-1,-1,21,23,25,27,29,-1,-1,-1,-1,-1,-1,-1,-1,-1,-1],"loss_changes":[2.3666424E1,1.7263603E-1,2.9276443E0,0E0,2.3008516E-1,2.3371205E0,0E0,0E0,0E0,1.9050674E0,1.199842E0,1.3113301E0,1.9931364E0,8.0230147E-1,0E0,0E0,1.2488266E0,9.112234E-1,2.0480735E0,5.382141E-1,1.3256805E0,0E0,0E0,0E0,0E0,0E0,0E0,0E0,0E0,0E0,0E0],"parents":[2147483647,0,0,1,1,2,2,4,4,5,5,9,9,10,10,11,11,12,12,13,13,16,16,17,17,18,18,19,19,20,20],"right_children":[2,4,6,-1,8,10,-1,-1,-1,12,14,16,18,20,-1,-1,22,24,26,28,30,-1,-1,-1,-1,-1,-1,-1,-1,-1,-1],"split_conditions":[-3.510946E-1,8.650655E-1,1.5317609E0,-1.6184592E-1,1.0040554E0,1.0713764E0,-1.4870703E-1,3.937382E-2,-1.0414461E-1,5.559106E-1,1.6036396E0,-7.3798543E-1,4.379375E-2,1.0941093E0,-1.3809828E-1,-1.323941E-1,4.867707E-1,1.0151683E0,3.1662878E-1,3.4454888E-1,1.0998913E0,5.7594858E-2,-1.8759472E-4,9.2308864E-2,1.9850034E-1,-5.060345E-3,8.338977E-2,1.43346945E-2,-1.7504758E-1,2.078778E-1,2.407262E-3],"split_indices":[1,3,3,0,3,0,0,0,0,1,0,0,0,0,0,0,3,1,0,3,0,0,0,0,0,0,0,0,0,0,0],"split_type":[0,0,0,0,0,0,0,0,0,0,0,0,0,0,0,0,0,0,0,0,0,0,0,0,0,0,0,0,0,0,0],"sum_hessian":[4.2015045E2,6.485453E1,3.5529593E2,6.239624E1,2.458287E0,3.4879092E2,6.505001E0,1.0057558E0,1.4525312E0,2.8393942E2,6.485149E1,1.3970155E2,1.4423788E2,5.9860004E1,4.99148E0,3.503597E0,1.3619795E2,3.520141E1,1.0903648E2,4.538954E0,5.5321053E1,7.6970726E1,5.9227226E1,2.1322544E1,1.3878864E1,3.3975613E1,7.506087E1,1.9343469E0,2.6046069E0,1.9857291E0,5.3335323E1],"tree_param":{"num_deleted":"0","num_feature":"4","num_nodes":"31","size_leaf_vector":"1"}},{"base_weights":[-8.739914E-2,5.0940007E-1,-5.4801285E-1,5.805776E-1,-1.5089002E-1,-2.7250974E-2,-1.6817279E-1,1.7805994E-1,-9.802461E-2,1.460127E-1,-1.17963985E-1],"categories":[],"categories_nodes":[],"categories_segments":[],"categories_sizes":[],"default_left":[0,0,0,0,0,0,0,0,0,0,0],"id":16,"left_children":[1,3,5,7,-1,9,-1,-1,-1,-1,-1],"loss_changes":[7.669377E1,9.054731E0,1.0143089E0,1.5349617E0,0E0,1.0863467E0,0E0,0E0,0E0,0E0,0E0],"parents":[2147483647,0,0,1,1,2,2,3,3,5,5],"right_children":[2,4,6,8,-1,10,-1,-1,-1,-1,-1],"split_conditions":[-2.593363E-1,-2.4634635E-1,-2.3276465E-1,-1.1291847E-1,-1.5089002E-1,-4.8363635E-1,-1.6817279E-1,1.7805994E-1,-9.802461E-2,1.460127E-1,-1.17963985E-1],"split_indices":[3,0,3,1,0,0,0,0,0,0,0],"split_type":[0,0,0,0,0,0,0,0,0,0,0],"sum_hessian":[2.7697858E2,1.2060693E2,1.5637163E2,1.1308282E2,7.524115E0,3.7581818E0,1.5261345E2,1.1183185E2,1.2509743E0,1.4258149E0,2.332367E0],"tree_param":{"num_deleted":"0","num_feature":"4","num_nodes":"11","size_leaf_vector":"1"}},{"base_weights":[3.5556484E-2,-1.62387E-1,1.4138103E-1,-4.5176935E-1,1.567257E-1,-1.4634816E-1,-4.457656E-2,1.06778294E-1,2.897821E-1,1.3838476E-1,-1.7240128E-1,2.498551E-1,1.6693787E-1,3.424991E-2,2.3086509E-1,3.9990228E-2,-4.987096E-1,5.459908E-1,2.2292186E-1,6.612811E-2,-1.3744009E-2,4.329237E-2,1.1833246E-1,1.5859093E-1,-2.1579362E-2,-2.0349337E-1,-4.4347484E-2,1.8923524E-1,5.5620465E-2,-1.0087242E-1,7.366781E-2],"categories":[],"categories_nodes":[],"categories_segments":[],"categories_sizes":[],"default_left":[0,0,0,0,0,0,0,0,0,0,0,0,0,0,0,0,0,0,0,0,0,0,0,0,0,0,0,0,0,0,0],"id":17,"left_children":[1,-1,3,5,7,-1,-1,9,11,13,15,17,-1,19,21,23,25,27,29,-1,-1,-1,-1,-1,-1,-1,-1,-1,-1,-1,-1],"loss_changes":[2.5505104E1,0E0,3.281682E0,2.7583241E-2,2.2593699E0,0E0,0E0,2.24879E0,8.562546E-1,2.178783E0,1.8280063E0,5.412226E-1,0E0,1.6195667E0,1.6433382E0,9.5290136E-1,5.5261326E-1,7.381928E-2,1.0683539E0,0E0,0E0,0E0,0E0,0E0,0E0,0E0,0E0,0E0,0E0,0E0,0E0],"parents":[2147483647,0,0,2,2,3,3,4,4,7,7,8,8,9,9,10,10,11,11,13,13,14,14,15,15,16,16,17,17,18,18],"right_children":[2,-1,4,6,8,-1,-1,10,12,14,16,18,-1,20,22,24,26,28,30,-1,-1,-1,-1,-1,-1,-1,-1,-1,-1,-1,-1],"split_conditions":[-3.9890072E-1,-1.62387E-1,-3.834468E-1,-4.1993204E-1,1.0116E0,-1.4634816E-1,-4.457656E-2,8.8726693E-1,1.6036396E0,5.429511E-1,7.2694683E-1,1.0423632E0,1.6693787E-1,1.2273536E-1,5.3133506E-1,-1.9825736E-1,9.45578E-1,9.390058E-1,1.0482587E0,6.612811E-2,-1.3744009E-2,4.329237E-2,1.1833246E-1,1.5859093E-1,-2.1579362E-2,-2.0349337E-1,-4.4347484E-2,1.8923524E-1,5.5620465E-2,-1.0087242E-1,7.366781E-2],"split_indices":[0,0,3,3,0,0,0,0,0,3,1,0,0,1,0,1,0,3,0,0,0,0,0,0,0,0,0,0,0,0,0],"split_type":[0,0,0,0,0,0,0,0,0,0,0,0,0,0,0,0,0,0,0,0,0,0,0,0,0,0,0,0,0,0,0],"sum_hessian":[4.155579E2,6.378E1,3.517779E2,8.153713E0,3.4362418E2,6.7427554E0,1.4109583E0,2.5114902E2,9.247515E1,2.2606058E2,2.5088446E1,8.211743E1,1.0357718E1,1.0697488E2,1.1908569E2,1.5728401E1,9.360045E0,5.2392263E0,7.6878204E1,3.164206E1,7.533282E1,7.9107704E1,3.9977985E1,2.2372673E0,1.3491134E1,5.5738854E0,3.78616E0,3.6351087E0,1.6041174E0,2.4522588E0,7.442595E1],"tree_param":{"num_deleted":"0","num_feature":"4","num_nodes":"31","size_leaf_vector":"1"}},{"base_weights":[2.593003E-2,-5.116467E-1,1.0567431E-1,-1.5768155E-1,-1.5104504E-1,1.1641486E-1,-1.4199175E-1,-9.718422E-2,3.5959926E-2,1.2827206E-1,-2.6421526E-1,7.7807665E-2,2.1011178E-1,-1.4074999E-1,-7.321357E-2,1.0684714E-1,-3.5141876E-1,4.6979174E-1,1.4413732E-1,1.5667126E-1,-3.1368902E-1,2.8200613E-2,1.9096383E-1,7.147704E-2,-1.4127159E-1,8.325225E-2,2.0236486E-1,5.389629E-2,-1.0416311E-1,-1.3285346E-1,-6.796367E-3],"categories":[],"categories_nodes":[],"categories_segments":[],"categories_sizes":[],"default_left":[0,0,0,0,0,0,0,0,0,0,0,0,0,0,0,0,0,0,0,0,0,0,0,0,0,0,0,0,0,0,0],"id":18,"left_children":[1,3,5,-1,7,9,-1,-1,-1,11,13,15,17,-1,19,21,23,25,27,-1,29,-1,-1,-1,-1,-1,-1,-1,-1,-1,-1],"loss_changes":[1.7095438E1,1.7994499E-1,2.2129574E0,0E0,1.9449838E-1,1.5750847E0,0E0,0E0,0E0,1.3541565E0,3.8229084E-1,2.6159115E0,2.0906978E0,0E0,1.122343E0,1.2636516E0,1.0521989E0,8.002825E-1,1.8407328E0,0E0,1.9268548E-1,0E0,0E0,0E0,0E0,0E0,0E0,0E0,0E0,0E0,0E0],"parents":[2147483647,0,0,1,1,2,2,4,4,5,5,9,9,10,10,11,11,12,12,14,14,15,15,16,16,17,17,18,18,20,20],"right_children":[2,4,6,-1,8,10,-1,-1,-1,12,14,16,18,-1,20,22,24,26,28,-1,30,-1,-1,-1,-1,-1,-1,-1,-1,-1,-1],"split_conditions":[-3.510946E-1,8.650655E-1,1.5317609E0,-1.5768155E-1,-3.9133146E-1,1.4538587E0,-1.4199175E-1,-9.718422E-2,3.5959926E-2,7.807576E-1,8.480425E-1,7.102043E-1,4.379375E-2,-1.4074999E-1,9.917828E-1,1.4770513E0,-1.2796094E-1,-1.8891023E-1,1.5923674E0,1.5667126E-1,1.1387633E0,2.8200613E-2,1.9096383E-1,7.147704E-2,-1.4127159E-1,8.325225E-2,2.0236486E-1,5.389629E-2,-1.0416311E-1,-1.3285346E-1,-6.796367E-3],"split_indices":[1,3,3,0,1,0,0,0,0,1,1,1,0,0,1,3,0,0,1,0,3,0,0,0,0,0,0,0,0,0,0],"split_type":[0,0,0,0,0,0,0,0,0,0,0,0,0,0,0,0,0,0,0,0,0,0,0,0,0,0,0,0,0,0,0],"sum_hessian":[3.9652505E2,5.0522663E1,3.4600238E2,4.8199352E1,2.3233116E0,3.4048505E2,5.517343E0,1.2986884E0,1.0246232E0,3.3084183E2,9.643222E0,2.058564E2,1.2498542E2,3.9492228E0,5.6939993E0,1.9351514E2,1.2341268E1,2.408083E1,1.00904594E2,1.3009577E0,4.3930416E0,1.9008311E2,3.4320166E0,1.911897E0,1.0429371E1,1.3633324E1,1.0447506E1,9.469402E1,6.210573E0,2.6814423E0,1.7115993E0],"tree_param":{"num_deleted":"0","num_feature":"4","num_nodes":"31","size_leaf_vector":"1"}},{"base_weights":[-1.0870943E-1,4.766182E-1,-5.348841E-1,5.5096745E-1,-1.4513576E-1,-3.355892E-2,-1.6428342E-1,1.6952686E-1,-9.114762E-2,1.2670133E-1,-1.110189E-1],"categories":[],"categories_nodes":[],"categories_segments":[],"categories_sizes":[],"default_left":[0,0,0,0,0,0,0,0,0,0,0],"id":19,"left_children":[1,3,5,7,-1,9,-1,-1,-1,-1,-1],"loss_changes":[5.71811E1,7.169878E0,8.272171E-1,1.2605247E0,0E0,8.2309276E-1,0E0,0E0,0E0,0E0,0E0],"parents":[2147483647,0,0,1,1,2,2,3,3,5,5],"right_children":[2,4,6,8,-1,10,-1,-1,-1,-1,-1],"split_conditions":[-2.593363E-1,-2.4634635E-1,-2.3276465E-1,-1.1291847E-1,-1.4513576E-1,-4.8363635E-1,-1.6428342E-1,1.6952686E-1,-9.114762E-2,1.2670133E-1,-1.110189E-1],"split_indices":[3,0,3,1,0,0,0,0,0,0,0],"split_type":[0,0,0,0,0,0,0,0,0,0,0],"sum_hessian":[2.2720506E2,9.567808E1,1.31527E2,8.919909E1,6.4789877E0,3.3464992E0,1.2818048E2,8.808278E1,1.1163083E0,1.3128169E0,2.0336823E0],"tree_param":{"num_deleted":"0","num_feature":"4","num_nodes":"11","size_leaf_vector":"1"}},{"base_weights":[3.6869094E-2,-1.5818053E-1,1.1919439E-1,-4.2879203E-1,1.3166296E-1,-1.3923195E-1,-4.593682E-2,1.18652225E-1,1.6496992E-1,2.8299952E-1,8.859793E-2,4.651047E-1,2.1804553E-1,7.017621E-2,4.0742803E-1,-4.148637E-2,1.5984496E-1,-3.8380846E-2,9.892625E-2,1.7968439E-2,1.4553565E-1,1.3432278E-1,1.5162446E-2],"categories":[],"categories_nodes":[],"categories_segments":[],"categories_sizes":[],"default_left":[0,0,0,0,0,0,0,0,0,0,0,0,0,0,0,0,0,0,0,0,0,0,0],"id":20,"left_children":[1,-1,3,5,7,-1,-1,9,-1,11,13,15,17,19,21,-1,-1,-1,-1,-1,-1,-1,-1],"loss_changes":[1.8328308E1,0E0,2.4070172E0,5.7297945E-3,1.7692833E0,0E0,0E0,1.5961971E0,0E0,4.9343014E-1,1.6097753E0,5.778105E-1,1.5475845E0,1.101137E0,1.9360137E-1,0E0,0E0,0E0,0E0,0E0,0E0,0E0,0E0],"parents":[2147483647,0,0,2,2,3,3,4,4,7,7,9,9,10,10,11,11,12,12,13,13,14,14],"right_children":[2,-1,4,6,8,-1,-1,10,-1,12,14,16,18,20,22,-1,-1,-1,-1,-1,-1,-1,-1],"split_conditions":[-3.9890072E-1,-1.5818053E-1,-3.834468E-1,-4.1993204E-1,1.5317609E0,-1.3923195E-1,-4.593682E-2,-2.3120956E-2,1.6496992E-1,-3.510946E-1,1.4538587E0,-1.8984947E-1,-2.8088763E-1,1.6193497E0,1.4406666E0,-4.148637E-2,1.5984496E-1,-3.8380846E-2,9.892625E-2,1.7968439E-2,1.4553565E-1,1.3432278E-1,1.5162446E-2],"split_indices":[0,0,3,3,3,0,0,1,0,1,0,3,1,1,3,0,0,0,0,0,0,0,0],"split_type":[0,0,0,0,0,0,0,0,0,0,0,0,0,0,0,0,0,0,0,0,0,0,0],"sum_hessian":[3.9228952E2,4.926874E1,3.4302078E2,6.8884387E0,3.3613235E2,5.500267E0,1.3881716E0,3.272362E2,8.896154E0,4.9289238E1,2.7794696E2,1.1338912E1,3.795033E1,2.6391812E2,1.40288515E1,1.038888E0,1.0300024E1,9.227095E0,2.8723232E1,2.5865356E2,5.2645535E0,1.237623E1,1.6526214E0],"tree_param":{"num_deleted":"0","num_feature":"4","num_nodes":"23","size_leaf_vector":"1"}},{"base_weights":[2.6963502E-2,-1.5395455E-1,8.65721E-2,9.4761E-2,-1.3309784E-1,1.0107433E-1,-1.23347156E-1,7.093205E-2,2.1686733E-1,8.8694915E-2,-2.5638932E-1,5.186814E-1,1.2258374E-1,2.288502E-2,2.0096189E-1,-1.7631419E-1,-2.431727E-2,-3.2453217E-2,1.7260024E-1,1.5288913E-1,7.3703653E-3],"categories":[],"categories_nodes":[],"categories_segments":[],"categories_sizes":[],"default_left":[0,0,0,0,0,0,0,0,0,0,0,0,0,0,0,0,0,0,0,0,0],"id":21,"left_children":[1,-1,3,5,-1,7,-1,9,11,13,15,17,19,-1,-1,-1,-1,-1,-1,-1,-1],"loss_changes":[1.2257394E1,0E0,1.5290604E0,1.1214204E0,0E0,1.1528907E0,0E0,1.5755517E0,1.8899181E0,1.7815795E0,7.659E-1,6.315608E-1,2.0215821E0,0E0,0E0,0E0,0E0,0E0,0E0,0E0,0E0],"parents":[2147483647,0,0,2,2,3,3,5,5,7,7,8,8,9,9,10,10,11,11,12,12],"right_children":[2,-1,4,6,-1,8,-1,10,12,14,16,18,20,-1,-1,-1,-1,-1,-1,-1,-1],"split_conditions":[-3.9133146E-1,-1.5395455E-1,1.5317609E0,1.6036396E0,-1.3309784E-1,1.0757449E0,-1.23347156E-1,1.0020924E0,1.5046474E-1,9.824114E-1,1.0151683E0,-3.1841427E-1,1.7519628E-1,2.288502E-2,2.0096189E-1,-1.7631419E-1,-2.431727E-2,-3.2453217E-2,1.7260024E-1,1.5288913E-1,7.3703653E-3],"split_indices":[1,0,3,0,0,1,0,1,0,1,1,3,3,0,0,0,0,0,0,0,0],"split_type":[0,0,0,0,0,0,0,0,0,0,0,0,0,0,0,0,0,0,0,0,0],"sum_hessian":[3.7831644E2,3.6844013E1,3.414724E2,3.3708774E2,4.384698E0,3.3372342E2,3.364308E0,2.6607385E2,6.7649574E1,2.5306946E2,1.3004381E1,1.5031261E1,5.2618313E1,2.4888557E2,4.1838927E0,3.686322E0,9.318059E0,1.1704814E0,1.386078E1,9.783922E0,4.2834393E1],"tree_param":{"num_deleted":"0","num_feature":"4","num_nodes":"21","size_leaf_vector":"1"}},{"base_weights":[-1.300081E-1,4.2982525E-1,-1.6120553E-1,5.295076E-1,-1.4497304E-1,1.6421376E-1,-9.091159E-2],"categories":[],"categories_nodes":[],"categories_segments":[],"categories_sizes":[],"default_left":[0,0,0,0,0,0,0],"id":22,"left_children":[1,3,-1,5,-1,-1,-1],"loss_changes":[4.2906136E1,7.4799643E0,0E0,1.2376976E0,0E0,0E0,0E0],"parents":[2147483647,0,0,1,1,3,3],"right_children":[2,4,-1,6,-1,-1,-1],"split_conditions":[-2.3276465E-1,-2.4634635E-1,-1.6120553E-1,-1.1291847E-1,-1.4497304E-1,1.6421376E-1,-9.091159E-2],"split_indices":[3,0,0,1,0,0,0],"split_type":[0,0,0,0,0,0,0],"sum_hessian":[1.8613522E2,7.837089E1,1.07764336E2,7.103578E1,7.3351E0,6.987828E1,1.1575027E0],"tree_param":{"num_deleted":"0","num_feature":"4","num_nodes":"7","size_leaf_vector":"1"}},{"base_weights":[3.764036E-2,-1.5478319E-1,1.0154884E-1,-4.0923935E-1,1.11915424E-1,-1.7567934E-1,-1.4314488E-1,1.015021E-1,1.5319428E-1,-8.370989E-2,6.361489E-3,2.3778571E-1,7.728624E-2,1.8885374E-1,4.9430397E-1,7.90142E-3,1.3621435E-1,7.1639255E-2,-1.3929123E-1,1.7242517E-1,2.0259079E-2,1.9619374E-2,-9.751632E-2,1.4721951E-1,3.2392368E-2],"categories":[],"categories_nodes":[],"categories_segments":[],"categories_sizes":[],"default_left":[0,0,0,0,0,0,0,0,0,0,0,0,0,0,0,0,0,0,0,0,0,0,0,0,0],"id":23,"left_children":[1,-1,3,5,7,9,-1,11,-1,-1,-1,13,15,17,19,21,23,-1,-1,-1,-1,-1,-1,-1,-1],"loss_changes":[1.3306498E1,0E0,1.8286529E0,2.5809407E-2,1.3216286E0,6.980775E-2,0E0,1.0496209E0,0E0,0E0,0E0,5.1346827E-1,1.1285096E0,1.4880854E0,2.0585251E-1,2.4704952E0,1.4420314E0,0E0,0E0,0E0,0E0,0E0,0E0,0E0,0E0],"parents":[2147483647,0,0,2,2,3,3,4,4,5,5,7,7,11,11,12,12,13,13,14,14,15,15,16,16],"right_children":[2,-1,4,6,8,10,-1,12,-1,-1,-1,14,16,18,20,22,24,-1,-1,-1,-1,-1,-1,-1,-1],"split_conditions":[-3.9890072E-1,-1.5478319E-1,-3.834468E-1,-3.9133146E-1,1.5317609E0,-2.9995546E-1,-1.4314488E-1,-2.3120956E-2,1.5319428E-1,-8.370989E-2,6.361489E-3,-7.718818E-2,5.3133506E-1,-9.844369E-2,7.930728E-1,4.166218E-1,6.021021E-1,7.1639255E-2,-1.3929123E-1,1.7242517E-1,2.0259079E-2,1.9619374E-2,-9.751632E-2,1.4721951E-1,3.2392368E-2],"split_indices":[0,0,3,1,3,0,0,1,0,0,0,1,0,1,0,0,0,0,0,0,0,0,0,0,0],"split_type":[0,0,0,0,0,0,0,0,0,0,0,0,0,0,0,0,0,0,0,0,0,0,0,0,0],"sum_hessian":[3.7363474E2,3.7937927E1,3.356968E2,5.91217E0,3.2978464E2,2.139801E0,3.7723691E0,3.226138E2,7.1708536E0,1.1295862E0,1.0102147E0,4.734469E1,2.752691E2,4.1218334E1,6.1263566E0,1.2693901E2,1.483301E2,3.8879784E1,2.33855E0,4.8629584E0,1.263398E0,1.0893172E2,1.8007296E1,9.735471E0,1.3859464E2],"tree_param":{"num_deleted":"0","num_feature":"4","num_nodes":"25","size_leaf_vector":"1"}},{"base_weights":[2.8050173E-2,-1.5089846E-1,7.400661E-2,8.037326E-2,-1.24583505E-1,8.5829355E-2,-1.18549354E-1,6.1296538E-2,1.9211803E-1,4.6525978E-2,3.6451176E-1,5.2228713E-1,1.0788394E-1,1.5803708E-2,-1.1746522E-1,-6.262218E-2,1.4614211E-1,7.000621E-2,1.7703271E-1,7.007443E-2,-5.956448E-2],"categories":[],"categories_nodes":[],"categories_segments":[],"categories_sizes":[],"default_left":[0,0,0,0,0,0,0,0,0,0,0,0,0,0,0,0,0,0,0,0,0],"id":24,"left_children":[1,-1,3,5,-1,7,-1,9,11,13,15,17,19,-1,-1,-1,-1,-1,-1,-1,-1],"loss_changes":[8.937884E0,0E0,1.0817076E0,8.980324E-1,0E0,8.489537E-1,0E0,1.190743E0,1.652194E0,7.1681607E-1,9.719198E-1,1.0189366E-1,1.9801998E0,0E0,0E0,0E0,0E0,0E0,0E0,0E0,0E0],"parents":[2147483647,0,0,2,2,3,3,5,5,7,7,8,8,9,9,10,10,11,11,12,12],"right_children":[2,-1,4,6,-1,8,-1,10,12,14,16,18,20,-1,-1,-1,-1,-1,-1,-1,-1],"split_conditions":[-3.9133146E-1,-1.5089846E-1,1.5317609E0,1.6036396E0,-1.24583505E-1,1.1061666E0,-1.18549354E-1,1.3994603E0,1.5046474E-1,1.3714474E0,6.413665E-2,1.178154E0,1.437821E0,1.5803708E-2,-1.1746522E-1,-6.262218E-2,1.4614211E-1,7.000621E-2,1.7703271E-1,7.007443E-2,-5.956448E-2],"split_indices":[1,0,3,0,0,1,0,3,0,3,1,1,1,0,0,0,0,0,0,0,0],"split_type":[0,0,0,0,0,0,0,0,0,0,0,0,0,0,0,0,0,0,0,0,0],"sum_hessian":[3.6370737E2,2.817611E1,3.3553125E2,3.3204636E2,3.484903E0,3.2909006E2,2.9563158E0,2.6865717E2,6.0432888E1,2.572778E2,1.1379364E1,1.1226884E1,4.9206005E1,2.5458179E2,2.6960034E0,1.8815334E0,9.49783E0,2.9785268E0,8.248357E0,3.5061596E1,1.4144412E1],"tree_param":{"num_deleted":"0","num_feature":"4","num_nodes":"21","size_leaf_vector":"1"}},{"base_weights":[-1.5131544E-1,4.0444496E-1,-1.5874071E-1,5.1150155E-1,-1.4057903E-1,1.5968038E-1,-8.680736E-2],"categories":[],"categories_nodes":[],"categories_segments":[],"categories_sizes":[],"default_left":[0,0,0,0,0,0,0],"id":25,"left_children":[1,3,-1,5,-1,-1,-1],"loss_changes":[3.249386E1,6.1075373E0,0E0,1.0920343E0,0E0,0E0,0E0],"parents":[2147483647,0,0,1,1,3,3],"right_children":[2,4,-1,6,-1,-1,-1],"split_conditions":[-2.3276465E-1,-2.4634635E-1,-1.5874071E-1,-1.1291847E-1,-1.4057903E-1,1.5968038E-1,-8.680736E-2],"split_indices":[3,0,0,1,0,0,0],"split_type":[0,0,0,0,0,0,0],"sum_hessian":[1.5273001E2,6.178134E1,9.094866E1,5.540182E1,6.3795223E0,5.4328453E1,1.0733674E0],"tree_param":{"num_deleted":"0","num_feature":"4","num_nodes":"7","size_leaf_vector":"1"}},{"base_weights":[3.6165144E-2,-1.5179925E-1,8.533104E-2,-3.915313E-1,9.4137274E-2,-4.5373403E-2,-1.3723132E-1,8.4806085E-2,4.4344595E-1,9.6472465E-2,-1.7776479E-1,2.1854136E-3,1.5366241E-1,1.22289464E-1,-2.9345226E-2,8.802675E-2,-2.788756E-1,1.1355075E-1,3.306057E-2,-1.5192549E-1,1.2037048E-2,-1.1720254E-1,1.053841E-1],"categories":[],"categories_nodes":[],"categories_segments":[],"categories_sizes":[],"default_left":[0,0,0,0,0,0,0,0,0,0,0,0,0,0,0,0,0,0,0,0,0,0,0],"id":26,"left_children":[1,-1,3,5,7,-1,-1,9,11,13,15,-1,-1,17,19,-1,21,-1,-1,-1,-1,-1,-1],"loss_changes":[9.648282E0,0E0,1.4278221E0,2.899772E-2,1.0250852E0,0E0,0E0,9.936719E-1,2.4358761E-1,9.971354E-1,7.4468887E-1,0E0,0E0,7.4489045E-1,1.7729738E0,0E0,9.803888E-1,0E0,0E0,0E0,0E0,0E0,0E0],"parents":[2147483647,0,0,2,2,3,3,4,4,7,7,8,8,9,9,10,10,13,13,14,14,16,16],"right_children":[2,-1,4,6,8,-1,-1,10,12,14,16,-1,-1,18,20,-1,22,-1,-1,-1,-1,-1,-1],"split_conditions":[-3.9890072E-1,-1.5179925E-1,-3.834468E-1,-3.9133146E-1,1.5266562E0,-4.5373403E-2,-1.3723132E-1,1.4096245E0,2.8500256E-1,1.1061666E0,6.413665E-2,2.1854136E-3,1.5366241E-1,-2.4490307E-1,9.676214E-2,8.802675E-2,1.4809172E0,1.1355075E-1,3.306057E-2,-1.5192549E-1,1.2037048E-2,-1.1720254E-1,1.053841E-1],"split_indices":[0,0,3,1,3,0,0,3,0,1,1,0,0,3,3,0,0,0,0,0,0,0,0],"split_type":[0,0,0,0,0,0,0,0,0,0,0,0,0,0,0,0,0,0,0,0,0,0,0],"sum_hessian":[3.5933676E2,2.9104433E1,3.3023233E2,5.199798E0,3.2503253E2,1.8284256E0,3.3713725E0,3.177862E2,7.2463393E0,3.0487286E2,1.2913331E1,1.1374409E0,6.108898E0,2.5298914E2,5.188374E1,1.9454293E0,1.0967901E1,1.0032061E1,2.4295708E2,5.795252E0,4.6088486E1,9.638002E0,1.3298987E0],"tree_param":{"num_deleted":"0","num_feature":"4","num_nodes":"23","size_leaf_vector":"1"}},{"base_weights":[2.812925E-2,-1.480881E-1,6.365914E-2,6.898484E-2,-1.1761867E-1,7.341758E-2,-1.12223886E-1,-1.1094597E-1,7.7646144E-2,4.724249E-1,6.948819E-2,4.5912445E-2,1.5354684E-1,-5.821351E-2,2.4617575E-2],"categories":[],"categories_nodes":[],"categories_segments":[],"categories_sizes":[],"default_left":[0,0,0,0,0,0,0,0,0,0,0,0,0,0,0],"id":27,"left_children":[1,-1,3,5,-1,7,-1,-1,9,11,13,-1,-1,-1,-1],"loss_changes":[6.5710306E0,0E0,8.307915E-1,6.7202413E-1,0E0,6.3929784E-1,0E0,0E0,1.0091007E0,1.9199848E-3,1.0698434E0,0E0,0E0,0E0,0E0],"parents":[2147483647,0,0,2,2,3,3,5,5,8,8,9,9,10,10],"right_children":[2,-1,4,6,-1,8,-1,-1,10,12,14,-1,-1,-1,-1],"split_conditions":[-3.9133146E-1,-1.480881E-1,1.6036396E0,1.5317609E0,-1.1761867E-1,-5.520938E-1,-1.12223886E-1,-1.1094597E-1,-3.834468E-1,-3.947234E-1,-2.398939E-1,4.5912445E-2,1.5354684E-1,-5.821351E-2,2.4617575E-2],"split_indices":[1,0,0,3,0,3,0,0,3,0,3,0,0,0,0],"split_type":[0,0,0,0,0,0,0,0,0,0,0,0,0,0,0],"sum_hessian":[3.5176874E2,2.1605076E1,3.3016367E2,3.271887E2,2.9749994E0,3.2477368E2,2.4149814E0,2.2520874E0,3.225216E2,5.377637E0,3.1714398E2,1.1268897E0,4.250747E0,1.3781595E1,3.0336237E2],"tree_param":{"num_deleted":"0","num_feature":"4","num_nodes":"15","size_leaf_vector":"1"}},{"base_weights":[-1.7231636E-1,3.8210574E-1,-1.567073E-1,4.9694034E-1,-1.3616048E-1,1.5609454E-1,-5.1204808E-2],"categories":[],"categories_nodes":[],"categories_segments":[],"categories_sizes":[],"default_left":[0,0,0,0,0,0,0],"id":28,"left_children":[1,3,-1,5,-1,-1,-1],"loss_changes":[2.4778557E1,4.9863977E0,0E0,7.7670956E-1,0E0,0E0,0E0],"parents":[2147483647,0,0,1,1,3,3],"right_children":[2,4,-1,6,-1,-1,-1],"split_conditions":[-2.3276465E-1,-2.4634635E-1,-1.567073E-1,-1.3334326E-1,-1.3616048E-1,1.5609454E-1,-5.1204808E-2],"split_indices":[3,0,0,1,0,0,0],"split_type":[0,0,0,0,0,0,0],"sum_hessian":[1.25649574E2,4.859287E1,7.70567E1,4.3080605E1,5.512265E0,4.1836475E1,1.2441285E0],"tree_param":{"num_deleted":"0","num_feature":"4","num_nodes":"7","size_leaf_vector":"1"}},{"base_weights":[3.411932E-2,-1.4902933E-1,7.199894E-2,-3.7218943E-1,7.9477705E-2,-3.7553962E-2,-1.3149647E-1,7.2128534E-2,1.358337E-1,3.4433138E-1,6.415737E-2,-9.616518E-3,4.0542856E-1,4.5710713E-1,5.6964155E-2,1.4396176E-1,5.1027324E-2,2.1423249E-1,-1.8732188E-2,1.3754973E-1,1.4926173E-2],"categories":[],"categories_nodes":[],"categories_segments":[],"categories_sizes":[],"default_left":[0,0,0,0,0,0,0,0,0,0,0,0,0,0,0,0,0,0,0,0,0],"id":29,"left_children":[1,-1,3,5,7,-1,-1,9,-1,11,13,-1,15,17,19,-1,-1,-1,-1,-1,-1],"loss_changes":[7.0499396E0,0E0,1.1140069E0,3.6301315E-2,8.503456E-1,0E0,0E0,6.6536665E-1,0E0,2.1502125E-1,8.4750926E-1,0E0,5.2078485E-2,7.673948E-1,8.5915744E-1,0E0,0E0,0E0,0E0,0E0,0E0],"parents":[2147483647,0,0,2,2,3,3,4,4,7,7,9,9,10,10,12,12,13,13,14,14],"right_children":[2,-1,4,6,8,-1,-1,10,-1,12,14,-1,16,18,20,-1,-1,-1,-1,-1,-1],"split_conditions":[-3.9890072E-1,-1.4902933E-1,-3.834468E-1,-3.9133146E-1,1.6036396E0,-3.7553962E-2,-1.3149647E-1,-3.510946E-1,1.358337E-1,-2.604302E-1,-3.4729448E-1,-9.616518E-3,8.650655E-1,3.228424E-1,-3.1841427E-1,1.4396176E-1,5.1027324E-2,2.1423249E-1,-1.8732188E-2,1.3754973E-1,1.4926173E-2],"split_indices":[0,0,3,1,0,0,0,1,0,0,0,0,3,1,3,0,0,0,0,0,0],"split_type":[0,0,0,0,0,0,0,0,0,0,0,0,0,0,0,0,0,0,0,0,0],"sum_hessian":[3.47796E2,2.2356392E1,3.254396E2,4.5811963E0,3.208584E2,1.578443E0,3.0027533E0,3.158338E2,5.024593E0,7.7851763E0,3.0804865E2,1.1536304E0,6.631546E0,4.413285E0,3.0363535E2,4.248532E0,2.383014E0,2.70215E0,1.7111349E0,4.252029E0,2.9938333E2],"tree_param":{"num_deleted":"0","num_feature":"4","num_nodes":"21","size_leaf_vector":"1"}},{"base_weights":[2.6083425E-2,-1.4507215E-1,5.3178795E-2,1.4534067E-1,2.722972E-2,8.014027E-3,3.550111E-1,1.455807E-1,-6.9112163E-3,-2.0203312E-1,1.4561497E-1,5.2338344E-1,1.3498051E-1,4.949955E-1,6.8106964E-2,-1.6797301E-1,3.4230966E-2,1.198439E-1,-3.3398372E-1,1.7271581E-1,6.5678686E-2,1.9853055E-1,5.67105E-1,-3.757176E-1,3.248827E-1,-3.327044E-2,1.9896443E-1,1.1011231E-2,1.8119866E-1,1.7176822E-1,-2.4224299E-1,6.851597E-1,6.0183583E-3,-5.5366155E-2,-1.7919467E-1,-2.3881197E-1,4.5868676E-2,-2.8028784E-2,1.1448707E-1,2.0075576E-1,6.69937E-2,1.1084026E-1,-2.3164561E-1,1.3162063E-1,-9.9683434E-2,-1.9686961E-1,1.4749124E-2,-3.0541232E-2,1.7491817E-1,-2.0153533E-1,-1.675452E-2,2.310916E-1,5.5245675E-2,-7.112224E-2,1.4643307E-2],"categories":[],"categories_nodes":[],"categories_segments":[],"categories_sizes":[],"default_left":[0,0,0,0,0,0,0,0,0,0,0,0,0,0,0,0,0,0,0,0,0,0,0,0,0,0,0,0,0,0,0,0,0,0,0,0,0,0,0,0,0,0,0,0,0,0,0,0,0,0,0,0,0,0,0],"id":30,"left_children":[1,-1,3,5,7,9,11,13,15,17,19,21,23,25,27,29,31,-1,33,-1,35,37,39,41,43,-1,-1,45,-1,47,49,51,53,-1,-1,-1,-1,-1,-1,-1,-1,-1,-1,-1,-1,-1,-1,-1,-1,-1,-1,-1,-1,-1,-1],"loss_changes":[4.7776513E0,0E0,7.7959895E-1,2.0631425E0,1.0389907E0,1.3120879E0,9.805043E-1,1.5244406E0,1.333215E0,1.5608294E0,9.040407E-1,1.10770226E-1,1.4456224E0,1.121994E0,1.470343E0,1.0743771E0,2.9415042E0,0E0,4.915576E-1,0E0,1.9427488E0,2.1762478E-1,3.1809044E-1,1.5150845E0,9.3022346E-1,0E0,0E0,1.1687453E0,0E0,9.513551E-1,2.6848521E0,1.4201236E-1,1.6213126E0,0E0,0E0,0E0,0E0,0E0,0E0,0E0,0E0,0E0,0E0,0E0,0E0,0E0,0E0,0E0,0E0,0E0,0E0,0E0,0E0,0E0,0E0],"parents":[2147483647,0,0,2,2,3,3,4,4,5,5,6,6,7,7,8,8,9,9,10,10,11,11,12,12,13,13,14,14,15,15,16,16,18,18,20,20,21,21,22,22,23,23,24,24,27,27,29,29,30,30,31,31,32,32],"right_children":[2,-1,4,6,8,10,12,14,16,18,20,22,24,26,28,30,32,-1,34,-1,36,38,40,42,44,-1,-1,46,-1,48,50,52,54,-1,-1,-1,-1,-1,-1,-1,-1,-1,-1,-1,-1,-1,-1,-1,-1,-1,-1,-1,-1,-1,-1],"split_conditions":[-3.9133146E-1,-1.4507215E-1,9.249666E-2,-8.309217E-2,1.9174173E-1,1.9920781E-1,2.3119517E-2,3.4136644E-1,3.7327144E-1,-2.8088763E-1,2.8576204E-1,-9.392622E-2,8.0592655E-2,1.4464542E-1,1.2566763E0,3.3382335E-1,4.052747E-1,1.198439E-1,-1.9930144E-1,1.7271581E-1,3.656118E-1,4.1367316E-1,7.102043E-1,-2.4634635E-1,1.1553621E0,-3.327044E-2,1.9896443E-1,3.4454888E-1,1.8119866E-1,2.947551E-1,6.440922E-1,6.9619554E-1,3.1662878E-1,-5.5366155E-2,-1.7919467E-1,-2.3881197E-1,4.5868676E-2,-2.8028784E-2,1.1448707E-1,2.0075576E-1,6.69937E-2,1.1084026E-1,-2.3164561E-1,1.3162063E-1,-9.9683434E-2,-1.9686961E-1,1.4749124E-2,-3.0541232E-2,1.7491817E-1,-2.0153533E-1,-1.675452E-2,2.310916E-1,5.5245675E-2,-7.112224E-2,1.4643307E-2],"split_indices":[1,0,3,3,0,1,3,3,3,1,1,0,0,3,3,0,3,0,3,0,1,1,1,0,0,0,0,3,0,0,0,1,0,0,0,0,0,0,0,0,0,0,0,0,0,0,0,0,0,0,0,0,0,0,0],"split_type":[0,0,0,0,0,0,0,0,0,0,0,0,0,0,0,0,0,0,0,0,0,0,0,0,0,0,0,0,0,0,0,0,0,0,0,0,0,0,0,0,0,0,0,0,0,0,0,0,0,0,0,0,0,0,0],"sum_hessian":[3.4311E2,1.6469809E1,3.2664017E2,7.075227E1,2.558879E2,4.337888E1,2.7373394E1,5.6559147E1,1.9932875E2,1.6984253E1,2.6394629E1,1.4726026E1,1.2647368E1,9.286561E0,4.7272587E1,3.992992E1,1.5939883E2,2.690732E0,1.429352E1,3.1646602E0,2.3229969E1,2.4041202E0,1.2321905E1,3.1629264E0,9.484443E0,2.0920577E0,7.1945033E0,4.364321E1,3.6293766E0,6.927581E0,3.300234E1,5.65436E0,1.5374448E2,1.020401E1,4.08951E0,1.3881059E0,2.1841862E1,1.1153312E0,1.288789E0,8.7710705E0,3.5508347E0,1.1219673E0,2.0409591E0,8.367206E0,1.1172365E0,1.4842995E0,4.2158913E1,4.612224E0,2.315357E0,9.199118E0,2.380322E1,4.3735647E0,1.2807949E0,2.2333633E1,1.3141083E2],"tree_param":{"num_deleted":"0","num_feature":"4","num_nodes":"55","size_leaf_vector":"1"}},{"base_weights":[-1.9401972E-1,3.7494123E-1,-5.080282E-1,4.832957E-1,-1.2764199E-1,-1.5229306E-2,-1.5492937E-1,1.5242311E-1,-4.1963127E-2],"categories":[],"categories_nodes":[],"categories_segments":[],"categories_sizes":[],"default_left":[0,0,0,0,0,0,0,0,0],"id":31,"left_children":[1,3,5,7,-1,-1,-1,-1,-1],"loss_changes":[1.884806E1,3.4765162E0,2.3398018E-1,5.912757E-1,0E0,0E0,0E0,0E0,0E0],"parents":[2147483647,0,0,1,1,2,2,3,3],"right_children":[2,4,6,8,-1,-1,-1,-1,-1],"split_conditions":[-2.4490307E-1,-2.4634635E-1,-2.3276465E-1,-1.3334326E-1,-1.2764199E-1,-1.5229306E-2,-1.5492937E-1,1.5242311E-1,-4.1963127E-2],"split_indices":[3,0,3,1,0,0,0,0,0],"split_type":[0,0,0,0,0,0,0,0,0],"sum_hessian":[1.0343147E2,3.67141E1,6.671737E1,3.2685555E1,4.0285463E0,1.330978E0,6.538639E1,3.1613108E1,1.0724461E0],"tree_param":{"num_deleted":"0","num_feature":"4","num_nodes":"9","size_leaf_vector":"1"}},{"base_weights":[3.315443E-2,-1.462347E-1,6.2445827E-2,-5.150556E-2,9.033799E-2,8.372866E-2,-2.5350353E-1,3.9379144E-1,8.114865E-2,-2.9229432E-1,1.5248613E-1,-4.5191827E-1,-1.4108952E-2,5.9541786E-1,-1.0461054E-1,-6.715303E-2,1.1487995E-1,-4.485389E-1,3.504947E-2,1.7411546E-1,4.4370826E-2,-2.7919132E-2,-4.9912575E-1,5.5789304E-1,-2.1904638E-1,2.6987845E-2,2.0571518E-1,-4.8190498E-1,2.3777172E-2,3.166914E-1,8.4387526E-2,-5.598536E-2,-1.6334417E-1,3.157126E-2,-1.2511316E-1,-1.823121E-1,-4.025708E-2,1.3477824E-2,2.4751194E-1,-1.048006E-1,1.1183048E-1,-5.7206918E-3,-1.6985145E-1,2.7608348E-2,-1.6739744E-1,5.6659333E-2,1.870677E-1,-1.287648E-1,3.0759228E-2],"categories":[],"categories_nodes":[],"categories_segments":[],"categories_sizes":[],"default_left":[0,0,0,0,0,0,0,0,0,0,0,0,0,0,0,0,0,0,0,0,0,0,0,0,0,0,0,0,0,0,0,0,0,0,0,0,0,0,0,0,0,0,0,0,0,0,0,0,0],"id":32,"left_children":[1,-1,3,5,7,9,11,13,15,17,19,21,23,25,-1,27,29,31,-1,-1,33,-1,35,37,39,-1,-1,41,43,45,47,-1,-1,-1,-1,-1,-1,-1,-1,-1,-1,-1,-1,-1,-1,-1,-1,-1,-1],"loss_changes":[5.2214646E0,0E0,1.0317894E0,1.7745547E0,6.9301414E-1,1.0579963E0,1.2279928E0,1.3127483E0,1.2763258E0,4.616599E-1,1.5376933E0,1.9372487E-1,1.623796E0,2.2014737E-1,0E0,1.8075253E0,1.2469485E0,2.0005047E-2,0E0,0E0,8.319865E-1,0E0,4.0584493E-1,4.6459687E-1,9.1275996E-1,0E0,0E0,3.2503128E-1,1.6401259E0,9.3366814E-1,1.7322406E0,0E0,0E0,0E0,0E0,0E0,0E0,0E0,0E0,0E0,0E0,0E0,0E0,0E0,0E0,0E0,0E0,0E0,0E0],"parents":[2147483647,0,0,2,2,3,3,4,4,5,5,6,6,7,7,8,8,9,9,10,10,11,11,12,12,13,13,15,15,16,16,17,17,20,20,22,22,23,23,24,24,27,27,28,28,29,29,30,30],"right_children":[2,-1,4,6,8,10,12,14,16,18,20,22,24,26,-1,28,30,32,-1,-1,34,-1,36,38,40,-1,-1,42,44,46,48,-1,-1,-1,-1,-1,-1,-1,-1,-1,-1,-1,-1,-1,-1,-1,-1,-1,-1],"split_conditions":[-3.9890072E-1,-1.462347E-1,9.249666E-2,-8.309217E-2,-2.8249097E-1,-2.1319228E-1,2.3119517E-2,9.0061045E-1,1.9174173E-1,-2.1123552E-1,-1.0734168E-2,-9.392622E-2,8.0592655E-2,-3.755595E-1,-1.0461054E-1,3.4136644E-1,3.0741176E-1,-3.834468E-1,3.504947E-2,1.7411546E-1,1.1061666E0,-2.7919132E-2,7.102043E-1,-1.1483161E-1,1.1553621E0,2.6987845E-2,2.0571518E-1,1.3200313E-1,1.2566763E0,1.1928657E0,3.2812145E-1,-5.598536E-2,-1.6334417E-1,3.157126E-2,-1.2511316E-1,-1.823121E-1,-4.025708E-2,1.3477824E-2,2.4751194E-1,-1.048006E-1,1.1183048E-1,-5.7206918E-3,-1.6985145E-1,2.7608348E-2,-1.6739744E-1,5.6659333E-2,1.870677E-1,-1.287648E-1,3.0759228E-2],"split_indices":[0,0,3,3,0,1,3,1,0,3,1,0,0,0,0,3,0,3,0,0,1,0,1,0,0,0,0,3,3,3,0,0,0,0,0,0,0,0,0,0,0,0,0,0,0,0,0,0,0],"split_type":[0,0,0,0,0,0,0,0,0,0,0,0,0,0,0,0,0,0,0,0,0,0,0,0,0,0,0,0,0,0,0,0,0,0,0,0,0,0,0,0,0,0,0,0,0,0,0,0,0],"sum_hessian":[3.3941293E2,1.7246428E1,3.221665E2,6.3184456E1,2.5898206E2,3.8197426E1,2.4987032E1,6.381957E0,2.5260008E2,5.402264E0,3.2795162E1,1.3177508E1,1.1809524E1,5.174805E0,1.207152E0,4.6624012E1,2.0597607E2,3.839594E0,1.56267E0,5.7337847E0,2.7061377E1,1.8774178E0,1.1300091E1,2.660771E0,9.148752E0,1.0869192E0,4.087886E0,7.6106224E0,3.901339E1,2.580461E1,1.8017146E2,1.8189563E0,2.0206375E0,2.4589605E1,2.4717708E0,8.196189E0,3.1039011E0,1.311205E0,1.349566E0,7.833842E0,1.3149111E0,1.3610902E0,6.249532E0,3.567049E1,3.342898E0,1.935688E1,6.4477286E0,5.3743997E0,1.7479707E2],"tree_param":{"num_deleted":"0","num_feature":"4","num_nodes":"49","size_leaf_vector":"1"}},{"base_weights":[2.6906803E-2,-1.420294E-1,4.8107628E-2,5.3441938E-2,-3.3037838E-1,5.920279E-2,-2.5707158E-1,-3.1449802E-3,-1.271417E-1,4.090739E-2,2.384219E-1,-1.2109601E-1,-7.057351E-2,2.9762497E-2,2.712602E-1,4.3598756E-1,6.61875E-2,2.803182E-2,-4.873397E-2,2.2000816E-2,-1.2416927E-2,1.4015302E-1,-1.2181759E-3,1.6918623E-1,-7.993357E-3,1.4431375E-1,-1.7524853E-2],"categories":[],"categories_nodes":[],"categories_segments":[],"categories_sizes":[],"default_left":[0,0,0,0,0,0,0,0,0,0,0,0,0,0,0,0,0,0,0,0,0,0,0,0,0,0,0],"id":33,"left_children":[1,-1,3,5,7,9,11,-1,-1,13,15,-1,17,19,21,23,25,-1,-1,-1,-1,-1,-1,-1,-1,-1,-1],"loss_changes":[3.572067E0,0E0,6.6757154E-1,5.845884E-1,1.3342732E-1,1.017547E0,1.351206E-1,0E0,0E0,7.248627E-1,9.516144E-1,0E0,7.312693E-2,8.5080224E-1,7.059221E-1,7.9892087E-1,8.847996E-1,0E0,0E0,0E0,0E0,0E0,0E0,0E0,0E0,0E0,0E0],"parents":[2147483647,0,0,2,2,3,3,4,4,5,5,6,6,9,9,10,10,12,12,13,13,14,14,15,15,16,16],"right_children":[2,-1,4,6,8,10,12,-1,-1,14,16,-1,18,20,22,24,26,-1,-1,-1,-1,-1,-1,-1,-1,-1,-1],"split_conditions":[-3.9133146E-1,-1.420294E-1,1.5266562E0,1.6193497E0,4.2786723E-1,1.2665286E0,4.978276E-1,-3.1449802E-3,-1.271417E-1,1.3994603E0,1.4074862E0,-1.2109601E-1,5.429511E-1,7.137112E-1,9.2066693E-1,1.0255286E0,1.5046474E-1,2.803182E-2,-4.873397E-2,2.2000816E-2,-1.2416927E-2,1.4015302E-1,-1.2181759E-3,1.6918623E-1,-7.993357E-3,1.4431375E-1,-1.7524853E-2],"split_indices":[1,0,3,1,0,1,0,0,0,3,1,0,3,3,0,0,0,0,0,0,0,0,0,0,0,0,0],"split_type":[0,0,0,0,0,0,0,0,0,0,0,0,0,0,0,0,0,0,0,0,0,0,0,0,0,0,0],"sum_hessian":[3.3359955E2,1.2693883E1,3.2090567E2,3.172926E2,3.6130621E0,3.123078E2,4.9848022E0,1.0680983E0,2.5449638E0,2.844938E2,2.7814005E1,2.1391287E0,2.8456733E0,2.7244177E2,1.2052031E1,1.2241143E1,1.5572862E1,1.0155866E0,1.8300867E0,1.6894771E2,1.03494064E2,6.6342764E0,5.417754E0,9.417265E0,2.8238783E0,2.9362469E0,1.2636615E1],"tree_param":{"num_deleted":"0","num_feature":"4","num_nodes":"27","size_leaf_vector":"1"}},{"base_weights":[-2.1370731E-1,3.4681904E-1,-1.5224814E-1,4.7725472E-1,-1.2652493E-1,1.4952183E-1,-3.7315313E-3],"categories":[],"categories_nodes":[],"categories_segments":[],"categories_sizes":[],"default_left":[0,0,0,0,0,0,0],"id":34,"left_children":[1,3,-1,5,-1,-1,-1],"loss_changes":[1.4439995E1,3.246952E0,0E0,2.8007936E-1,0E0,0E0,0E0],"parents":[2147483647,0,0,1,1,3,3],"right_children":[2,4,-1,6,-1,-1,-1],"split_conditions":[-2.7496684E-1,-1.1291847E-1,-1.5224814E-1,-2.4490307E-1,-1.2652493E-1,1.4952183E-1,-3.7315313E-3],"split_indices":[0,1,0,3,0,0,0],"split_type":[0,0,0,0,0,0,0],"sum_hessian":[8.561898E1,2.9381119E1,5.6237865E1,2.5442282E1,3.938837E0,2.4371798E1,1.0704842E0],"tree_param":{"num_deleted":"0","num_feature":"4","num_nodes":"7","size_leaf_vector":"1"}},{"base_weights":[2.8682087E-2,-1.4326201E-1,5.1426213E-2,4.4681747E-2,3.9805982E-1,-3.3954906E-1,5.0341845E-2,1.3954699E-2,1.4012997E-1,-2.296812E-2,-1.220265E-1,8.109996E-2,-7.6983008E-3,5.4565042E-2,3.516141E-1,-2.823721E-1,5.2496877E-2,6.680463E-2,6.8114405E-3,-5.292722E-2,1.2923536E-1,1.1762784E-1,-1.06064E-1,2.0112418E-1,7.001723E-3],"categories":[],"categories_nodes":[],"categories_segments":[],"categories_sizes":[],"default_left":[0,0,0,0,0,0,0,0,0,0,0,0,0,0,0,0,0,0,0,0,0,0,0,0,0],"id":35,"left_children":[1,-1,3,5,7,9,11,-1,-1,-1,-1,13,15,17,19,21,23,-1,-1,-1,-1,-1,-1,-1,-1],"loss_changes":[3.8413036E0,0E0,7.260002E-1,6.982424E-1,1.2257689E-1,5.1502824E-2,5.531938E-1,0E0,0E0,0E0,0E0,1.4336495E0,1.8026141E0,9.885439E-1,8.2415557E-1,1.0792065E0,1.5975021E0,0E0,0E0,0E0,0E0,0E0,0E0,0E0,0E0],"parents":[2147483647,0,0,2,2,3,3,4,4,5,5,6,6,11,11,12,12,13,13,14,14,15,15,16,16],"right_children":[2,-1,4,6,8,10,12,-1,-1,-1,-1,14,16,18,20,22,24,-1,-1,-1,-1,-1,-1,-1,-1],"split_conditions":[-3.9890072E-1,-1.4326201E-1,1.5266562E0,-3.834468E-1,3.1662878E-1,-3.9133146E-1,8.106446E-1,1.3954699E-2,1.4012997E-1,-2.296812E-2,-1.220265E-1,7.102043E-1,9.131963E-1,2.7793534E-2,-1.1483161E-1,-2.52371E-1,9.395658E-1,6.680463E-2,6.8114405E-3,-5.292722E-2,1.2923536E-1,1.1762784E-1,-1.06064E-1,2.0112418E-1,7.001723E-3],"split_indices":[0,0,3,3,0,1,1,0,0,0,0,1,1,0,0,0,1,0,0,0,0,0,0,0,0],"split_type":[0,0,0,0,0,0,0,0,0,0,0,0,0,0,0,0,0,0,0,0,0,0,0,0,0],"sum_hessian":[3.3049948E2,1.3350805E1,3.1714865E2,3.1220303E2,4.945644E0,3.6759272E0,3.085271E2,1.0865915E0,3.8590524E0,1.1835759E0,2.4923513E0,2.013992E2,1.0712789E2,1.845029E2,1.6896305E1,1.8593557E1,8.853433E1,2.8440653E1,1.5606224E2,2.042847E0,1.4853458E1,1.3444428E0,1.7249113E1,2.9984326E0,8.55359E1],"tree_param":{"num_deleted":"0","num_feature":"4","num_nodes":"25","size_leaf_vector":"1"}},{"base_weights":[2.4734072E-2,-1.3868238E-1,4.1286632E-2,4.5265272E-2,-1.07568525E-1,5.036932E-2,-2.3267442E-1,3.4872122E-2,2.0614983E-1,-1.1098672E-1,-5.834648E-2,7.069283E-2,-3.3753288E-3,2.945987E-1,-1.09095186E-1,3.0590568E-3,-3.000647E-2,2.7692605E-2,-9.349617E-2,9.014882E-3,-6.843722E-2,1.2711471E-1,2.5584488E-3,1.3448748E-1,-1.12219654E-1],"categories":[],"categories_nodes":[],"categories_segments":[],"categories_sizes":[],"default_left":[0,0,0,0,0,0,0,0,0,0,0,0,0,0,0,0,0,0,0,0,0,0,0,0,0],"id":36,"left_children":[1,-1,3,5,-1,7,9,11,13,-1,15,17,19,21,23,-1,-1,-1,-1,-1,-1,-1,-1,-1,-1],"loss_changes":[2.6641493E0,0E0,5.225248E-1,4.600109E-1,0E0,7.43928E-1,1.1904821E-1,3.8958257E-1,8.113979E-1,0E0,1.1806594E-2,1.2419677E0,1.0464706E0,8.124771E-1,1.1798159E0,0E0,0E0,0E0,0E0,0E0,0E0,0E0,0E0,0E0,0E0],"parents":[2147483647,0,0,2,2,3,3,5,5,6,6,7,7,8,8,10,10,11,11,12,12,13,13,14,14],"right_children":[2,-1,4,6,-1,8,10,12,14,-1,16,18,20,22,24,-1,-1,-1,-1,-1,-1,-1,-1,-1,-1],"split_conditions":[-3.9133146E-1,-1.3868238E-1,1.6036396E0,1.6193497E0,-1.07568525E-1,1.2665286E0,4.978276E-1,6.019332E-1,1.1780602E0,-1.1098672E-1,1.1270655E0,1.299784E0,1.0267892E0,1.0013145E0,1.3672308E0,3.0590568E-3,-3.000647E-2,2.7692605E-2,-9.349617E-2,9.014882E-3,-6.843722E-2,1.2711471E-1,2.5584488E-3,1.3448748E-1,-1.12219654E-1],"split_indices":[1,0,0,1,0,1,0,3,3,0,0,0,1,0,1,0,0,0,0,0,0,0,0,0,0],"split_type":[0,0,0,0,0,0,0,0,0,0,0,0,0,0,0,0,0,0,0,0,0,0,0,0,0],"sum_hessian":[3.2712122E2,9.867661E0,3.1725354E2,3.1500592E2,2.2476318E0,3.1012952E2,4.8763995E0,2.8318213E2,2.6947378E1,2.100274E0,2.7761252E0,1.4579205E2,1.3739009E2,2.1094383E1,5.8529963E0,1.3352894E0,1.4408357E0,1.3870877E2,7.0832806E0,1.2035676E2,1.7033323E1,1.4202826E1,6.891557E0,1.6629624E0,4.190034E0],"tree_param":{"num_deleted":"0","num_feature":"4","num_nodes":"25","size_leaf_vector":"1"}},{"base_weights":[-2.3034139E-1,4.619027E-1,-4.4845203E-1,1.4471339E-1,1.903074E-2,9.068324E-2,-4.8549858E-1,3.703858E-2,-1.4996803E-1],"categories":[],"categories_nodes":[],"categories_segments":[],"categories_sizes":[],"default_left":[0,0,0,0,0,0,0,0,0],"id":37,"left_children":[1,3,5,-1,-1,-1,7,-1,-1],"loss_changes":[1.11488085E1,1.15074396E-1,1.6934605E0,0E0,0E0,0E0,5.296545E-1,0E0,0E0],"parents":[2147483647,0,0,1,1,2,2,6,6],"right_children":[2,4,6,-1,-1,-1,8,-1,-1],"split_conditions":[-4.9651518E-1,-5.7372767E-1,-5.950576E-1,1.4471339E-1,1.903074E-2,9.068324E-2,-6.040791E-1,3.703858E-2,-1.4996803E-1],"split_indices":[3,3,0,0,0,0,1,0,0],"split_type":[0,0,0,0,0,0,0,0,0],"sum_hessian":[7.1468185E1,1.6855164E1,5.4613018E1,1.58310995E1,1.0240649E0,2.2315886E0,5.2381428E1,1.0346535E0,5.1346775E1],"tree_param":{"num_deleted":"0","num_feature":"4","num_nodes":"9","size_leaf_vector":"1"}},{"base_weights":[2.6362121E-2,-1.4002566E-1,4.4123664E-2,-3.25388E-1,4.9088083E-2,-2.126245E-2,-1.1654597E-1,4.383541E-2,1.2222037E-1,3.834036E-2,3.0886188E-1,5.4170307E-2,-1.2873042E-1,3.9279506E-1,-1.3618315E-2,1.02090135E-1,1.4497157E-2,-1.01161934E-1,8.643328E-3,5.4027934E-2,1.5012887E-1],"categories":[],"categories_nodes":[],"categories_segments":[],"categories_sizes":[],"default_left":[0,0,0,0,0,0,0,0,0,0,0,0,0,0,0,0,0,0,0,0,0],"id":38,"left_children":[1,-1,3,5,7,-1,-1,9,-1,11,13,15,17,19,-1,-1,-1,-1,-1,-1,-1],"loss_changes":[2.8700755E0,0E0,5.9370667E-1,4.162222E-2,5.686727E-1,0E0,0E0,4.370793E-1,0E0,8.086801E-1,1.9979537E-1,4.479413E-1,8.8113195E-1,2.5517702E-2,0E0,0E0,0E0,0E0,0E0,0E0,0E0],"parents":[2147483647,0,0,2,2,3,3,4,4,7,7,9,9,10,10,11,11,12,12,13,13],"right_children":[2,-1,4,6,8,-1,-1,10,-1,12,14,16,18,20,-1,-1,-1,-1,-1,-1,-1],"split_conditions":[-3.9890072E-1,-1.4002566E-1,-3.834468E-1,-3.9133146E-1,1.6036396E0,-2.126245E-2,-1.1654597E-1,1.6193497E0,1.2222037E-1,1.2665286E0,8.650655E-1,-3.1841427E-1,1.4074862E0,5.429511E-1,-1.3618315E-2,1.02090135E-1,1.4497157E-2,-1.01161934E-1,8.643328E-3,5.4027934E-2,1.5012887E-1],"split_indices":[0,0,3,1,0,0,0,1,0,1,3,3,1,3,0,0,0,0,0,0,0],"split_type":[0,0,0,0,0,0,0,0,0,0,0,0,0,0,0,0,0,0,0,0,0],"sum_hessian":[3.2433997E2,1.0397413E1,3.1394257E2,3.306269E0,3.106363E2,1.0786569E0,2.227612E0,3.0725446E2,3.3818436E0,3.0213467E2,5.1197815E0,2.7660236E2,2.5532293E1,4.051161E0,1.0686207E0,4.393121E0,2.7220926E2,1.0498762E1,1.503353E1,2.2594125E0,1.7917483E0],"tree_param":{"num_deleted":"0","num_feature":"4","num_nodes":"21","size_leaf_vector":"1"}},{"base_weights":[2.1947855E-2,-1.3501856E-1,3.505891E-2,3.91591E-2,-2.8934407E-1,3.1809215E-2,2.0647477E-1,-2.9175768E-3,-1.1555595E-1,5.419309E-2,-3.8229402E-2,1.4872676E-1,3.775934E-2,2.9462932E-2,1.7998953E-1,-2.192662E-1,4.280946E-3,2.4735339E-1,-2.502055E-1,2.968601E-2,-8.449517E-3,7.476432E-2,-5.057724E-2,-1.39154E-2,-1.8545976E-1,-4.6472657E-2,2.6921973E-2,-4.0298287E-2,1.7239474E-1,-1.1913144E-1,3.4109604E-2],"categories":[],"categories_nodes":[],"categories_segments":[],"categories_sizes":[],"default_left":[0,0,0,0,0,0,0,0,0,0,0,0,0,0,0,0,0,0,0,0,0,0,0,0,0,0,0,0,0,0,0],"id":39,"left_children":[1,-1,3,5,7,9,11,-1,-1,13,15,-1,17,19,21,23,25,27,29,-1,-1,-1,-1,-1,-1,-1,-1,-1,-1,-1,-1],"loss_changes":[2.0097148E0,0E0,4.2954236E-1,3.763449E-1,1.0461956E-1,4.7153622E-1,6.1187804E-1,0E0,0E0,7.0195186E-1,5.635989E-1,0E0,6.197745E-1,7.6841694E-1,9.3857133E-1,9.315134E-1,8.327261E-1,8.0829656E-1,2.7987152E-1,0E0,0E0,0E0,0E0,0E0,0E0,0E0,0E0,0E0,0E0,0E0,0E0],"parents":[2147483647,0,0,2,2,3,3,4,4,5,5,6,6,9,9,10,10,12,12,13,13,14,14,15,15,16,16,17,17,18,18],"right_children":[2,-1,4,6,8,10,12,-1,-1,14,16,-1,18,20,22,24,26,28,30,-1,-1,-1,-1,-1,-1,-1,-1,-1,-1,-1,-1],"split_conditions":[-3.9133146E-1,-1.3501856E-1,1.5266562E0,1.4096245E0,4.2786723E-1,9.733731E-1,1.4406666E0,-2.9175768E-3,-1.1555595E-1,1.1061666E0,1.0560379E0,1.4872676E-1,8.126035E-1,3.6375892E-1,1.5923674E0,9.45578E-1,3.9205357E-1,2.8500256E-1,1.3255377E0,2.968601E-2,-8.449517E-3,7.476432E-2,-5.057724E-2,-1.39154E-2,-1.8545976E-1,-4.6472657E-2,2.6921973E-2,-4.0298287E-2,1.7239474E-1,-1.1913144E-1,3.4109604E-2],"split_indices":[1,0,3,3,0,3,3,0,0,1,3,0,0,0,1,0,0,0,0,0,0,0,0,0,0,0,0,0,0,0,0],"split_type":[0,0,0,0,0,0,0,0,0,0,0,0,0,0,0,0,0,0,0,0,0,0,0,0,0,0,0,0,0,0,0],"sum_hessian":[3.21198E2,7.78011E0,3.134179E2,3.103743E2,3.0435925E0,2.9845386E2,1.1920439E1,1.0580932E0,1.9854993E0,2.2634254E2,7.211133E1,3.677149E0,8.24329E0,1.9018794E2,3.615459E1,1.2922203E1,5.918912E1,4.8524685E0,3.390821E0,8.58949E1,1.04293045E2,3.0402075E1,5.7525163E0,9.794104E0,3.1280992E0,2.0391645E1,3.8797478E1,2.5122972E0,2.3401716E0,2.3506756E0,1.0401453E0],"tree_param":{"num_deleted":"0","num_feature":"4","num_nodes":"31","size_leaf_vector":"1"}},{"base_weights":[-2.4161257E-1,3.1145623E-1,-1.4946365E-1,4.500361E-1,-1.1560036E-1,1.4463547E-1,1.9004466E-3],"categories":[],"categories_nodes":[],"categories_segments":[],"categories_sizes":[],"default_left":[0,0,0,0,0,0,0],"id":40,"left_children":[1,3,-1,5,-1,-1,-1],"loss_changes":[8.831481E0,2.1037338E0,0E0,2.4086952E-1,0E0,0E0,0E0],"parents":[2147483647,0,0,1,1,3,3],"right_children":[2,4,-1,6,-1,-1,-1],"split_conditions":[-2.398939E-1,-2.4634635E-1,-1.4946365E-1,-1.4850616E-1,-1.1560036E-1,1.4463547E-1,1.9004466E-3],"split_indices":[3,0,0,1,0,0,0],"split_type":[0,0,0,0,0,0,0],"sum_hessian":[6.0136402E1,1.8990639E1,4.1145763E1,1.6135658E1,2.8549788E0,1.49668865E1,1.1687722E0],"tree_param":{"num_deleted":"0","num_feature":"4","num_nodes":"7","size_leaf_vector":"1"}},{"base_weights":[2.408487E-2,-1.3647936E-1,3.818829E-2,3.305857E-2,3.4923565E-1,-9.29439E-2,3.738704E-2,9.165496E-3,1.2807113E-1,4.535964E-2,-1.4583863E-1,2.299948E-2,1.10577114E-1,-1.3201284E-1,2.071501E-2,1.4062182E-2,-3.120192E-2,1.0502762E-1,2.2005681E-2,-5.9830837E-2,8.916043E-2],"categories":[],"categories_nodes":[],"categories_segments":[],"categories_sizes":[],"default_left":[0,0,0,0,0,0,0,0,0,0,0,0,0,0,0,0,0,0,0,0,0],"id":41,"left_children":[1,-1,3,5,7,-1,9,-1,-1,11,13,15,17,-1,19,-1,-1,-1,-1,-1,-1],"loss_changes":[2.177142E0,0E0,4.8543498E-1,4.679811E-1,1.0944861E-1,0E0,4.515434E-1,0E0,0E0,4.2421162E-1,6.4307314E-1,6.6950005E-1,6.38151E-1,0E0,6.2024295E-1,0E0,0E0,0E0,0E0,0E0,0E0],"parents":[2147483647,0,0,2,2,3,3,4,4,6,6,9,9,10,10,11,11,12,12,14,14],"right_children":[2,-1,4,6,8,-1,10,-1,-1,12,14,16,18,-1,20,-1,-1,-1,-1,-1,-1],"split_conditions":[-3.9890072E-1,-1.3647936E-1,1.5266562E0,-3.834468E-1,3.1662878E-1,-9.29439E-2,1.4096245E0,9.165496E-3,1.2807113E-1,9.733731E-1,1.4406666E0,1.1061666E0,8.691071E-2,-1.3201284E-1,8.126035E-1,1.4062182E-2,-3.120192E-2,1.0502762E-1,2.2005681E-2,-5.9830837E-2,8.916043E-2],"split_indices":[0,0,3,3,0,0,3,0,0,3,3,1,1,0,0,0,0,0,0,0,0],"split_type":[0,0,0,0,0,0,0,0,0,0,0,0,0,0,0,0,0,0,0,0,0],"sum_hessian":[3.1869278E2,8.220786E0,3.10472E2,3.0652316E2,3.9488258E0,2.941509E0,3.0358163E2,1.0468407E0,2.9019852E0,2.9164395E2,1.1937706E1,2.1818925E2,7.345469E1,3.72165E0,8.216056E0,1.841953E2,3.3993946E1,8.749997E0,6.470469E1,4.7291594E0,3.4868968E0],"tree_param":{"num_deleted":"0","num_feature":"4","num_nodes":"21","size_leaf_vector":"1"}},{"base_weights":[1.9891212E-2,-1.307119E-1,3.024173E-2,3.340235E-2,-9.910608E-2,2.2390577E-1,2.7975652E-2,-7.2116695E-2,2.0699744E-1,-2.544738E-1,4.0092386E-2,1.12416714E-1,-1.1369055E-1,2.2154808E-1,-4.7249216E-1,3.2028866E-1,3.599726E-2,-4.883501E-2,1.4202698E-1,-6.004977E-2,1.7055449E-1,-3.037754E-2,-1.8405643E-1,2.5501935E-2,1.1241881E-1,-6.997967E-2,1.34825455E-2],"categories":[],"categories_nodes":[],"categories_segments":[],"categories_sizes":[],"default_left":[0,0,0,0,0,0,0,0,0,0,0,0,0,0,0,0,0,0,0,0,0,0,0,0,0,0,0],"id":42,"left_children":[1,-1,3,5,-1,7,9,11,-1,13,15,17,-1,19,21,23,25,-1,-1,-1,-1,-1,-1,-1,-1,-1,-1],"loss_changes":[1.5074259E0,0E0,3.6521515E-1,3.1315386E-1,0E0,1.210776E0,1.042245E0,3.8527602E-1,0E0,1.4061472E0,3.2124838E-1,5.291316E-1,0E0,7.898152E-1,4.0489888E-1,2.0034492E-2,7.016249E-1,0E0,0E0,0E0,0E0,0E0,0E0,0E0,0E0,0E0,0E0],"parents":[2147483647,0,0,2,2,3,3,5,5,6,6,7,7,9,9,10,10,11,11,13,13,14,14,15,15,16,16],"right_children":[2,-1,4,6,-1,8,10,12,-1,14,16,18,-1,20,22,24,26,-1,-1,-1,-1,-1,-1,-1,-1,-1,-1],"split_conditions":[-3.9133146E-1,-1.307119E-1,1.6036396E0,-2.9961604E-1,-9.910608E-2,-3.2171777E-1,-2.0881493E-1,3.224125E-1,2.0699744E-1,1.24083355E-1,-3.834468E-1,1.733447E-1,-1.1369055E-1,-2.7496684E-1,-2.8088763E-1,-2.0018707E-1,-2.668583E-1,-4.883501E-2,1.4202698E-1,-6.004977E-2,1.7055449E-1,-3.037754E-2,-1.8405643E-1,2.5501935E-2,1.1241881E-1,-6.997967E-2,1.34825455E-2],"split_indices":[1,0,0,1,0,1,1,0,0,0,3,0,0,0,1,0,3,0,0,0,0,0,0,0,0,0,0],"split_type":[0,0,0,0,0,0,0,0,0,0,0,0,0,0,0,0,0,0,0,0,0,0,0,0,0,0,0],"sum_hessian":[3.15869E2,6.1037946E0,3.097652E2,3.0797318E2,1.7920176E0,7.4148784E0,3.005583E2,5.0516944E0,2.3631837E0,1.1540455E1,2.8901782E2,3.550283E0,1.5014114E0,3.6201088E0,7.920346E0,3.050994E0,2.8596683E2,2.3261287E0,1.2241541E0,1.8250213E0,1.7950876E0,2.6534967E0,5.2668486E0,1.0546125E0,1.9963815E0,8.387722E0,2.7757913E2],"tree_param":{"num_deleted":"0","num_feature":"4","num_nodes":"27","size_leaf_vector":"1"}},{"base_weights":[-2.54344E-1,2.9088062E-1,-1.4827213E-1,4.444809E-1,-1.12813406E-1,1.4156078E-1,1.5273784E-2],"categories":[],"categories_nodes":[],"categories_segments":[],"categories_sizes":[],"default_left":[0,0,0,0,0,0,0],"id":43,"left_children":[1,3,-1,5,-1,-1,-1],"loss_changes":[6.895448E0,1.8473631E0,0E0,1.24619484E-1,0E0,0E0,0E0],"parents":[2147483647,0,0,1,1,3,3],"right_children":[2,4,-1,6,-1,-1,-1],"split_conditions":[-2.7496684E-1,-1.1291847E-1,-1.4827213E-1,-2.593363E-1,-1.12813406E-1,1.4156078E-1,1.5273784E-2],"split_indices":[0,1,0,3,0,0,0],"split_type":[0,0,0,0,0,0,0],"sum_hessian":[5.0619392E1,1.540199E1,3.5217403E1,1.2789877E1,2.612113E0,1.1771733E1,1.0181437E0],"tree_param":{"num_deleted":"0","num_feature":"4","num_nodes":"7","size_leaf_vector":"1"}},{"base_weights":[2.1706205E-2,-1.3239776E-1,3.289975E-2,2.8832803E-2,1.1220589E-1,-8.732932E-2,3.2584924E-2,3.1214884E-1,2.7243111E-2,5.76617E-3,1.6507667E-1,-1.2169273E-1,3.1083813E-2,1.12054E-1,-1.0580022E-1,1.09394774E-1,7.7320756E-3],"categories":[],"categories_nodes":[],"categories_segments":[],"categories_sizes":[],"default_left":[0,0,0,0,0,0,0,0,0,0,0,0,0,0,0,0,0],"id":44,"left_children":[1,-1,3,5,-1,-1,7,9,11,13,-1,-1,15,-1,-1,-1,-1],"loss_changes":[1.6444587E0,0E0,4.1649196E-1,3.7614426E-1,0E0,0E0,4.4369268E-1,4.0402347E-1,5.084237E-1,5.8667713E-1,0E0,0E0,5.1583976E-1,0E0,0E0,0E0,0E0],"parents":[2147483647,0,0,2,2,3,3,6,6,7,7,8,8,9,9,12,12],"right_children":[2,-1,4,6,-1,-1,8,10,12,14,-1,-1,16,-1,-1,-1,-1],"split_conditions":[-3.9890072E-1,-1.3239776E-1,1.6036396E0,-3.834468E-1,1.1220589E-1,-8.732932E-2,-3.4729448E-1,5.327697E-1,-3.205731E-1,1.2273536E-1,1.6507667E-1,-1.2169273E-1,-2.8249097E-1,1.12054E-1,-1.0580022E-1,1.09394774E-1,7.7320756E-3],"split_indices":[0,0,0,3,0,0,0,3,0,1,0,0,0,0,0,0,0],"split_type":[0,0,0,0,0,0,0,0,0,0,0,0,0,0,0,0,0],"sum_hessian":[3.1347986E2,6.492306E0,3.0698755E2,3.044424E2,2.5451403E0,2.6413527E0,3.0180106E2,4.58172E0,2.9721933E2,2.4514916E0,2.1302283E0,1.693805E0,2.9552554E2,1.1892592E0,1.2622323E0,3.5705397E0,2.91955E2],"tree_param":{"num_deleted":"0","num_feature":"4","num_nodes":"17","size_leaf_vector":"1"}},{"base_weights":[1.7841116E-2,-1.2607354E-1,2.6120346E-2,2.8994711E-2,-9.602878E-2,3.3803497E-2,-1.6753802E-1,2.3647955E-2,1.4975643E-1,-1.2164217E-1,1.2924975E-2,1.5367385E-2,1.8394552E-1,2.6797336E-1,-1.02540016E-1,1.10048726E-1,-2.0205705E-1,1.6091665E-2,-7.3272497E-3,-6.7275256E-2,8.02372E-2,2.0481639E-2,1.7344677E-1,-1.2143425E-1,1.06329575E-1,-1.1529354E-1,6.2386855E-3],"categories":[],"categories_nodes":[],"categories_segments":[],"categories_sizes":[],"default_left":[0,0,0,0,0,0,0,0,0,0,0,0,0,0,0,0,0,0,0,0,0,0,0,0,0,0,0],"id":45,"left_children":[1,-1,3,5,-1,7,9,11,13,-1,15,17,19,21,23,-1,25,-1,-1,-1,-1,-1,-1,-1,-1,-1,-1],"loss_changes":[1.1464597E0,0E0,3.15984E-1,2.9540378E-1,0E0,3.498298E-1,3.2685444E-1,3.6499372E-1,7.4265397E-1,0E0,4.719267E-1,4.042456E-1,5.208773E-1,9.890814E-1,1.3000318E0,0E0,1.6629352E-1,0E0,0E0,0E0,0E0,0E0,0E0,0E0,0E0,0E0,0E0],"parents":[2147483647,0,0,2,2,3,3,5,5,6,6,7,7,8,8,10,10,11,11,12,12,13,13,14,14,16,16],"right_children":[2,-1,4,6,-1,8,10,12,14,-1,16,18,20,22,24,-1,26,-1,-1,-1,-1,-1,-1,-1,-1,-1,-1],"split_conditions":[-3.9133146E-1,-1.2607354E-1,1.5317609E0,1.5923674E0,-9.602878E-2,1.2665286E0,4.5979995E-1,1.3994603E0,1.0255286E0,-1.2164217E-1,6.019332E-1,5.3133506E-1,6.413665E-2,6.440922E-1,1.5042763E0,1.10048726E-1,8.650655E-1,1.6091665E-2,-7.3272497E-3,-6.7275256E-2,8.02372E-2,2.0481639E-2,1.7344677E-1,-1.2143425E-1,1.06329575E-1,-1.1529354E-1,6.2386855E-3],"split_indices":[1,0,3,1,0,1,3,3,0,0,3,0,1,0,1,0,3,0,0,0,0,0,0,0,0,0,0],"split_type":[0,0,0,0,0,0,0,0,0,0,0,0,0,0,0,0,0,0,0,0,0,0,0,0,0,0,0],"sum_hessian":[3.1206238E2,4.86523E0,3.0719714E2,3.0557645E2,1.6207107E0,2.9908636E2,6.49008E0,2.7610785E2,2.29785E1,2.2614985E0,4.2285814E0,2.6358746E2,1.2520397E1,1.56046095E1,7.3738904E0,1.3310606E0,2.8975205E0,1.3418265E2,1.2940482E2,1.8402418E0,1.0680155E1,1.023514E1,5.3694696E0,4.507106E0,2.8667848E0,1.1953893E0,1.7021313E0],"tree_param":{"num_deleted":"0","num_feature":"4","num_nodes":"27","size_leaf_vector":"1"}},{"base_weights":[-2.6695788E-1,2.607508E-1,-1.4833617E-1,4.1804728E-1,-1.0835077E-1,1.3876122E-1,-1.1134994E-3],"categories":[],"categories_nodes":[],"categories_segments":[],"categories_sizes":[],"default_left":[0,0,0,0,0,0,0],"id":46,"left_children":[1,3,-1,5,-1,-1,-1],"loss_changes":[5.3839436E0,1.504972E0,0E0,2.176981E-1,0E0,0E0,0E0],"parents":[2147483647,0,0,1,1,3,3],"right_children":[2,4,-1,6,-1,-1,-1],"split_conditions":[-2.3276465E-1,-2.4634635E-1,-1.4833617E-1,-1.4850616E-1,-1.0835077E-1,1.3876122E-1,-1.1134994E-3],"split_indices":[3,0,0,1,0,0,0],"split_type":[0,0,0,0,0,0,0],"sum_hessian":[4.2772957E1,1.2840786E1,2.9932173E1,1.051032E1,2.330466E0,9.41995E0,1.0903698E0],"tree_param":{"num_deleted":"0","num_feature":"4","num_nodes":"7","size_leaf_vector":"1"}},{"base_weights":[1.9618826E-2,-1.2789397E-1,2.8571509E-2,2.4990564E-2,1.07888885E-1,2.618709E-1,2.0424534E-2,-2.1030262E-2,1.4954491E-1,-1.1499143E-1,2.4026355E-2,9.09359E-2,-1.0209835E-1,1.1198322E-1,2.0416409E-2,-5.7328187E-2,8.270933E-3],"categories":[],"categories_nodes":[],"categories_segments":[],"categories_sizes":[],"default_left":[0,0,0,0,0,0,0,0,0,0,0,0,0,0,0,0,0],"id":47,"left_children":[1,-1,3,5,-1,7,9,11,-1,-1,13,-1,-1,-1,15,-1,-1],"loss_changes":[1.2535168E0,0E0,3.5348105E-1,3.2297644E-1,0E0,3.8908157E-1,4.438555E-1,4.6908817E-1,0E0,0E0,3.670773E-1,0E0,0E0,0E0,4.5192993E-1,0E0,0E0],"parents":[2147483647,0,0,2,2,3,3,5,5,6,6,7,7,10,10,14,14],"right_children":[2,-1,4,6,-1,8,10,12,-1,-1,14,-1,-1,-1,16,-1,-1],"split_conditions":[-3.9890072E-1,-1.2789397E-1,1.5317609E0,-3.4729448E-1,1.07888885E-1,5.327697E-1,-3.205731E-1,1.2273536E-1,1.4954491E-1,-1.1499143E-1,-3.0832273E-1,9.09359E-2,-1.0209835E-1,1.1198322E-1,-2.2631209E-1,-5.7328187E-2,8.270933E-3],"split_indices":[0,0,3,0,0,3,0,1,0,0,0,0,0,0,0,0,0],"split_type":[0,0,0,0,0,0,0,0,0,0,0,0,0,0,0,0,0],"sum_hessian":[3.0993362E2,5.182361E0,3.0475128E2,3.0255414E2,2.19714E0,4.655968E0,2.9789816E2,2.535528E0,2.1204405E0,1.7019897E0,2.9619617E2,1.283346E0,1.2521819E0,1.9826083E0,2.9421356E2,8.783702E0,2.8542987E2],"tree_param":{"num_deleted":"0","num_feature":"4","num_nodes":"17","size_leaf_vector":"1"}},{"base_weights":[1.5817845E-2,-1.20798185E-1,2.2465369E-2,2.0426455E-1,1.738472E-2,-6.678789E-2,1.8833055E-1,-2.3408973E-1,2.7535586E-2,1.0390186E-1,-1.080791E-1,2.292975E-1,-4.3692386E-1,5.3805713E-2,-1.5502727E-2,3.0863193E-1,-9.0391114E-2,-5.298061E-2,1.5639737E-1,-8.9202546E-2,-1.7359546E-1,3.0688118E-2,2.4168038E-1,2.543774E-2,-1.2555884E-1,1.3838897E-2,1.2968922E-1,-3.985538E-2,-7.221496E-4,1.8924946E-2,-2.4632582E-2,-6.6941744E-3,2.1861653E-1,2.402985E-3,1.6789055E-1,-8.286624E-2,1.6190277E-2],"categories":[],"categories_nodes":[],"categories_segments":[],"categories_sizes":[],"default_left":[0,0,0,0,0,0,0,0,0,0,0,0,0,0,0,0,0,0,0,0,0,0,0,0,0,0,0,0,0,0,0,0,0,0,0,0,0],"id":48,"left_children":[1,-1,3,5,7,9,-1,11,13,15,-1,17,19,21,23,25,-1,-1,-1,27,-1,29,31,33,35,-1,-1,-1,-1,-1,-1,-1,-1,-1,-1,-1,-1],"loss_changes":[8.7060094E-1,0E0,2.789134E-1,9.856264E-1,7.6865095E-1,3.338117E-1,0E0,1.1989663E0,3.2633963E-1,4.6771082E-1,0E0,5.916853E-1,3.6606097E-1,7.700178E-1,4.9837336E-1,9.350851E-2,0E0,0E0,0E0,1.3456775E-2,0E0,5.9177613E-1,2.5192366E0,7.489978E-1,8.254231E-1,0E0,0E0,0E0,0E0,0E0,0E0,0E0,0E0,0E0,0E0,0E0,0E0],"parents":[2147483647,0,0,2,2,3,3,4,4,5,5,7,7,8,8,9,9,11,11,12,12,13,13,14,14,15,15,19,19,21,21,22,22,23,23,24,24],"right_children":[2,-1,4,6,8,10,-1,12,14,16,-1,18,20,22,24,26,-1,-1,-1,28,-1,30,32,34,36,-1,-1,-1,-1,-1,-1,-1,-1,-1,-1,-1,-1],"split_conditions":[-3.9133146E-1,-1.20798185E-1,-2.9961604E-1,-3.2171777E-1,-2.0881493E-1,3.224125E-1,1.8833055E-1,1.24083355E-1,8.228612E-1,9.733731E-1,-1.080791E-1,-2.7496684E-1,-2.8088763E-1,6.977293E-1,9.917828E-1,1.5953428E-1,-9.0391114E-2,-5.298061E-2,1.5639737E-1,5.6478214E-1,-1.7359546E-1,1.0255286E0,9.015617E-1,9.824114E-1,1.2665286E0,1.3838897E-2,1.2968922E-1,-3.985538E-2,-7.221496E-4,1.8924946E-2,-2.4632582E-2,-6.6941744E-3,2.1861653E-1,2.402985E-3,1.6789055E-1,-8.286624E-2,1.6190277E-2],"split_indices":[1,0,1,1,1,0,0,0,3,3,0,0,1,3,1,0,0,0,0,0,0,0,0,1,1,0,0,0,0,0,0,0,0,0,0,0,0],"split_type":[0,0,0,0,0,0,0,0,0,0,0,0,0,0,0,0,0,0,0,0,0,0,0,0,0,0,0,0,0,0,0,0,0,0,0,0,0],"sum_hessian":[3.087063E2,3.8955967E0,3.048107E2,7.220964E0,2.9758975E2,4.916552E0,2.3044116E0,1.0690307E1,2.8689944E2,3.5169842E0,1.399568E0,3.2149909E0,7.475316E0,1.7799997E2,1.08899475E2,2.494813E0,1.0221713E0,1.510602E0,1.7043889E0,2.6364117E0,4.8389044E0,1.595331E2,1.8466879E1,7.99334E1,2.8966066E1,1.2386256E0,1.2561873E0,1.4011557E0,1.235256E0,1.2428063E2,3.5252457E1,1.2594423E1,5.872455E0,7.839095E1,1.5424519E0,1.5456269E1,1.3509796E1],"tree_param":{"num_deleted":"0","num_feature":"4","num_nodes":"37","size_leaf_vector":"1"}},{"base_weights":[-2.7629828E-1,2.35564E-1,-1.4709109E-1,3.9911774E-1,-1.0446138E-1,1.351328E-1,-7.147775E-4],"categories":[],"categories_nodes":[],"categories_segments":[],"categories_sizes":[],"default_left":[0,0,0,0,0,0,0],"id":49,"left_children":[1,3,-1,5,-1,-1,-1],"loss_changes":[4.2094407E0,1.2555077E0,0E0,1.9891691E-1,0E0,0E0,0E0],"parents":[2147483647,0,0,1,1,3,3],"right_children":[2,4,-1,6,-1,-1,-1],"split_conditions":[-2.3276465E-1,-2.4634635E-1,-1.4709109E-1,-1.4850616E-1,-1.0446138E-1,1.351328E-1,-7.147775E-4],"split_indices":[3,0,0,1,0,0,0],"split_type":[0,0,0,0,0,0,0],"sum_hessian":[3.637352E1,1.0694196E1,2.5679325E1,8.6008215E0,2.0933738E0,7.5178905E0,1.082931E0],"tree_param":{"num_deleted":"0","num_feature":"4","num_nodes":"7","size_leaf_vector":"1"}},{"base_weights":[1.7637491E-2,-1.228139E-1,2.4837742E-2,-4.6382584E-2,3.8450606E-2,7.018177E-2,-3.3672497E-1,2.176558E-1,2.6236251E-2,-4.9156103E-2,2.3241985E-1,-4.7081765E-2,-4.073862E-1,5.7513826E-2,1.7453228E-1,-3.7072954E-1,3.559985E-2,-1.780546E-1,2.908962E-1,4.725666E-1,-2.6130393E-1,-1.1623085E-1,1.0456436E-1,-4.9879134E-1,-1.1508247E-1,-8.909554E-2,3.1759793E-1,3.3327486E-2,-5.4500467E-1,1.1758908E-1,1.0993468E-2,-1.1686172E-2,-1.2383031E-1,1.7618209E-1,-1.146596E-3,6.054826E-2,2.5492823E-1,-1.116564E-1,1.0662174E-2,-1.6911638E-1,-1.5639178E-2,6.941592E-2,-1.1234373E-1,5.2297212E-2,-1.17720865E-1,1.4864886E-1,-4.2259563E-2,-2.6341227E-1,1.4444669E-2,-2.3863297E-2,7.3780015E-2,-1.4727513E-1,9.85628E-3],"categories":[],"categories_nodes":[],"categories_segments":[],"categories_sizes":[],"default_left":[0,0,0,0,0,0,0,0,0,0,0,0,0,0,0,0,0,0,0,0,0,0,0,0,0,0,0,0,0,0,0,0,0,0,0,0,0,0,0,0,0,0,0,0,0,0,0,0,0,0,0,0,0],"id":50,"left_children":[1,-1,3,5,7,9,11,13,15,17,19,21,23,25,-1,27,29,31,33,35,37,-1,-1,39,41,43,45,-1,47,49,51,-1,-1,-1,-1,-1,-1,-1,-1,-1,-1,-1,-1,-1,-1,-1,-1,-1,-1,-1,-1,-1,-1],"loss_changes":[9.562841E-1,0E0,2.960861E-1,1.6875161E0,5.5331385E-1,7.066402E-1,2.7259493E-1,9.08806E-1,9.0615416E-1,9.9483323E-1,1.9485776E0,6.637646E-1,2.4530482E-1,4.9856424E-1,0E0,5.3276E-1,4.7404116E-1,5.1352847E-1,5.519542E-1,9.2241645E-1,2.0022139E-1,0E0,0E0,2.1222138E-1,4.460345E-1,7.609538E-1,4.502761E-1,0E0,8.9154613E-1,1.3930199E0,2.0166337E0,0E0,0E0,0E0,0E0,0E0,0E0,0E0,0E0,0E0,0E0,0E0,0E0,0E0,0E0,0E0,0E0,0E0,0E0,0E0,0E0,0E0,0E0],"parents":[2147483647,0,0,2,2,3,3,4,4,5,5,6,6,7,7,8,8,9,9,10,10,11,11,12,12,13,13,15,15,16,16,17,17,18,18,19,19,20,20,23,23,24,24,25,25,26,26,28,28,29,29,30,30],"right_children":[2,-1,4,6,8,10,12,14,16,18,20,22,24,26,-1,28,30,32,34,36,38,-1,-1,40,42,44,46,-1,48,50,52,-1,-1,-1,-1,-1,-1,-1,-1,-1,-1,-1,-1,-1,-1,-1,-1,-1,-1,-1,-1,-1,-1],"split_conditions":[-3.9890072E-1,-1.228139E-1,3.1076262E-2,-8.309217E-2,-2.0881493E-1,-1.9930144E-1,-8.1828535E-2,-2.6229167E-1,-1.4850616E-1,6.9619554E-1,4.7239402E-1,-1.6029336E-1,7.102043E-1,4.054593E-1,1.7453228E-1,5.6478214E-1,3.7327144E-1,-2.398939E-1,-3.1841427E-1,2.8576204E-1,-1.23409055E-1,-1.1623085E-1,1.0456436E-1,1.0574584E0,8.480425E-1,-3.3933318E-1,9.036038E-1,3.3327486E-2,6.2380385E-1,4.3255E-1,4.052747E-1,-1.1686172E-2,-1.2383031E-1,1.7618209E-1,-1.146596E-3,6.054826E-2,2.5492823E-1,-1.116564E-1,1.0662174E-2,-1.6911638E-1,-1.5639178E-2,6.941592E-2,-1.1234373E-1,5.2297212E-2,-1.17720865E-1,1.4864886E-1,-4.2259563E-2,-2.6341227E-1,1.4444669E-2,-2.3863297E-2,7.3780015E-2,-1.4727513E-1,9.85628E-3],"split_indices":[0,0,3,3,1,3,0,1,1,1,1,0,1,0,0,0,3,3,3,1,3,0,0,0,1,1,3,0,0,0,3,0,0,0,0,0,0,0,0,0,0,0,0,0,0,0,0,0,0,0,0,0,0],"split_type":[0,0,0,0,0,0,0,0,0,0,0,0,0,0,0,0,0,0,0,0,0,0,0,0,0,0,0,0,0,0,0,0,0,0,0,0,0,0,0,0,0,0,0,0,0,0,0,0,0,0,0,0,0],"sum_hessian":[3.067171E2,4.159806E0,3.0255728E2,4.816396E1,2.5439333E2,3.4907753E1,1.3256207E1,1.5159421E1,2.392339E2,2.051471E1,1.43930435E1,2.9265337E0,1.0329674E1,1.1333026E1,3.8263946E0,4.6236486E0,2.3461026E2,1.5221366E1,5.293343E0,9.711993E0,4.681051E0,1.5842965E0,1.3422372E0,7.330857E0,2.998817E0,7.6680074E0,3.6650186E0,1.3244555E0,3.299193E0,5.3284813E1,1.8132544E2,1.0289403E1,4.9319625E0,2.1443048E0,3.1490383E0,6.547478E0,3.1645145E0,3.223225E0,1.4578259E0,6.1716247E0,1.1592324E0,1.3301522E0,1.6686648E0,4.3314447E0,3.3365629E0,2.582248E0,1.0827707E0,1.8052895E0,1.4939033E0,2.1161518E1,3.2123295E1,6.6724973E0,1.7465295E2],"tree_param":{"num_deleted":"0","num_feature":"4","num_nodes":"53","size_leaf_vector":"1"}},{"base_weights":[1.4859476E-2,-1.1480728E-1,2.0229049E-2,3.5545148E-4,6.4272605E-2,2.7708145E-2,-3.141612E-1,3.344091E-1,-8.912081E-3,1.6603474E-2,1.9644262E-1,-3.795652E-1,9.798608E-2,-6.7597724E-2,4.050935E-1,2.6664019E-2,-1.833595E-1,3.1308823E-3,1.9108951E-1,-2.3446672E-1,-2.4275522E-1,5.548378E-1,1.4567338E-1,-1.7402392E-2,5.060486E-1,-3.6684185E-1,8.13988E-2,1.0229816E-2,-9.2470884E-2,1.06629916E-1,-4.3834373E-2,-1.2785286E-1,5.1249433E-2,1.9000843E-2,2.224661E-1,2.0064956E-1,-5.5900905E-2,6.3443845E-3,-1.6520873E-1,1.9457278E-1,5.5837262E-2,-1.6565561E-2,-1.7450583E-1,-1.2053075E-1,9.269045E-2],"categories":[],"categories_nodes":[],"categories_segments":[],"categories_sizes":[],"default_left":[0,0,0,0,0,0,0,0,0,0,0,0,0,0,0,0,0,0,0,0,0,0,0,0,0,0,0,0,0,0,0,0,0,0,0,0,0,0,0,0,0,0,0,0,0],"id":51,"left_children":[1,-1,3,5,7,9,11,13,15,17,-1,19,-1,-1,21,23,25,27,29,31,-1,33,35,37,39,41,43,-1,-1,-1,-1,-1,-1,-1,-1,-1,-1,-1,-1,-1,-1,-1,-1,-1,-1],"loss_changes":[6.590892E-1,0E0,2.6432836E-1,1.807677E0,1.859327E0,1.3352259E0,8.2855916E-1,8.842249E-1,4.6945724E-1,4.4831458E-1,0E0,7.9005265E-1,0E0,0E0,6.243255E-1,1.3407034E0,6.519996E-1,1.7297058E0,8.095615E-1,1.0951155E0,0E0,9.7654414E-1,1.5140507E0,1.2186048E0,1.2282276E-1,4.8648703E-1,7.905402E-1,0E0,0E0,0E0,0E0,0E0,0E0,0E0,0E0,0E0,0E0,0E0,0E0,0E0,0E0,0E0,0E0,0E0,0E0],"parents":[2147483647,0,0,2,2,3,3,4,4,5,5,6,6,7,7,8,8,9,9,11,11,14,14,15,15,16,16,17,17,18,18,19,19,21,21,22,22,23,23,24,24,25,25,26,26],"right_children":[2,-1,4,6,8,10,12,14,16,18,-1,20,-1,-1,22,24,26,28,30,32,-1,34,36,38,40,42,44,-1,-1,-1,-1,-1,-1,-1,-1,-1,-1,-1,-1,-1,-1,-1,-1,-1,-1],"split_conditions":[-3.9133146E-1,-1.1480728E-1,8.8726693E-1,7.6057434E-1,1.0013145E0,7.4406374E-1,1.2665286E0,-9.844369E-2,1.2065562E0,1.295547E0,1.9644262E-1,9.488524E-1,9.798608E-2,-6.7597724E-2,8.9896506E-1,1.1061666E0,1.5042763E0,1.117085E0,1.4770513E0,6.377744E-1,-2.4275522E-1,2.5842378E-1,9.2066693E-1,1.0020924E0,1.1622262E0,1.0998913E0,1.139868E0,1.0229816E-2,-9.2470884E-2,1.06629916E-1,-4.3834373E-2,-1.2785286E-1,5.1249433E-2,1.9000843E-2,2.224661E-1,2.0064956E-1,-5.5900905E-2,6.3443845E-3,-1.6520873E-1,1.9457278E-1,5.5837262E-2,-1.6565561E-2,-1.7450583E-1,-1.2053075E-1,9.269045E-2],"split_indices":[1,0,0,0,0,0,1,1,1,3,0,1,0,0,3,1,1,3,3,1,0,3,0,1,1,0,0,0,0,0,0,0,0,0,0,0,0,0,0,0,0,0,0,0,0],"split_type":[0,0,0,0,0,0,0,0,0,0,0,0,0,0,0,0,0,0,0,0,0,0,0,0,0,0,0,0,0,0,0,0,0,0,0,0,0,0,0,0,0,0,0,0,0],"sum_hessian":[3.0412723E2,3.1165297E0,3.0101068E2,2.0811284E2,9.289785E1,1.9230084E2,1.5812E1,1.9041868E1,7.385599E1,1.8996346E2,2.3373888E0,1.4717455E1,1.0945448E0,1.8897296E0,1.7152138E1,6.2049095E1,1.1806889E1,1.7729213E2,1.2671314E1,1.21572485E1,2.5602067E0,1.0152866E1,6.999272E0,5.77081E1,4.340996E0,6.746127E0,5.0607615E0,1.620638E2,1.5228341E1,8.4829235E0,4.188391E0,8.218375E0,3.9388733E0,3.1638114E0,6.9890547E0,2.3235242E0,4.6757474E0,5.4713364E1,2.994737E0,2.2924318E0,2.048564E0,3.2659738E0,3.480153E0,1.3752966E0,3.685465E0],"tree_param":{"num_deleted":"0","num_feature":"4","num_nodes":"45","size_leaf_vector":"1"}},{"base_weights":[-2.8405765E-1,2.2457397E-1,-1.4444579E-1,3.99434E-1,-1.0023047E-1,1.3000968E-1,2.550008E-2],"categories":[],"categories_nodes":[],"categories_segments":[],"categories_sizes":[],"default_left":[0,0,0,0,0,0,0],"id":52,"left_children":[1,3,-1,5,-1,-1,-1],"loss_changes":[3.3194451E0,1.0736208E0,0E0,4.622698E-2,0E0,0E0,0E0],"parents":[2147483647,0,0,1,1,3,3],"right_children":[2,4,-1,6,-1,-1,-1],"split_conditions":[-2.7496684E-1,-1.1291847E-1,-1.4444579E-1,-2.9246953E-1,-1.0023047E-1,1.3000968E-1,2.550008E-2],"split_indices":[0,1,0,3,0,0,0],"split_type":[0,0,0,0,0,0,0],"sum_hessian":[3.0979395E1,8.624004E0,2.235539E1,6.785304E0,1.8387003E0,5.783E0,1.0023043E0],"tree_param":{"num_deleted":"0","num_feature":"4","num_nodes":"7","size_leaf_vector":"1"}},{"base_weights":[1.5004172E-2,-1.07895575E-1,2.142425E-2,1.8339124E-2,1.0049386E-1,3.992861E-2,-2.9284768E-2,1.2309713E-2,3.4764704E-1,-2.988033E-1,4.238226E-2,2.3256851E-2,-1.8725693E-1,4.1230208E-1,-9.36954E-2,7.3936224E-2,-3.7211448E-1,8.630643E-3,2.0827283E-1,1.1076167E-2,-4.5530293E-2,7.9871595E-2,2.5353372E-1,-1.5868053E-1,-3.4207873E-2,1.6025519E-2,-1.4873515E-1,1.1719562E-1,-1.8334461E-2],"categories":[],"categories_nodes":[],"categories_segments":[],"categories_sizes":[],"default_left":[0,0,0,0,0,0,0,0,0,0,0,0,0,0,0,0,0,0,0,0,0,0,0,0,0,0,0,0,0],"id":53,"left_children":[1,-1,3,5,-1,7,9,11,13,15,17,19,-1,21,-1,-1,23,25,27,-1,-1,-1,-1,-1,-1,-1,-1,-1,-1],"loss_changes":[7.3711073E-1,0E0,2.831756E-1,3.0676907E-1,0E0,1.7374395E0,1.8146031E0,1.3320937E0,8.4742403E-1,8.799828E-1,4.1572237E-1,4.5247748E-1,0E0,7.719667E-1,0E0,0E0,6.593554E-1,1.4498878E0,6.4112926E-1,0E0,0E0,0E0,0E0,0E0,0E0,0E0,0E0,0E0,0E0],"parents":[2147483647,0,0,2,2,3,3,5,5,6,6,7,7,8,8,9,9,10,10,11,11,13,13,16,16,17,17,18,18],"right_children":[2,-1,4,6,-1,8,10,12,14,16,18,20,-1,22,-1,-1,24,26,28,-1,-1,-1,-1,-1,-1,-1,-1,-1,-1],"split_conditions":[-3.834468E-1,-1.07895575E-1,1.6036396E0,8.8726693E-1,1.0049386E-1,7.6057434E-1,1.0013145E0,7.4406374E-1,1.2665286E0,-9.844369E-2,1.2065562E0,1.295547E0,-1.8725693E-1,9.488524E-1,-9.36954E-2,7.3936224E-2,8.9896506E-1,1.1061666E0,1.5042763E0,1.1076167E-2,-4.5530293E-2,7.9871595E-2,2.5353372E-1,-1.5868053E-1,-3.4207873E-2,1.6025519E-2,-1.4873515E-1,1.1719562E-1,-1.8334461E-2],"split_indices":[3,0,0,0,0,0,0,0,1,1,1,3,0,1,0,0,3,1,1,0,0,0,0,0,0,0,0,0,0],"split_type":[0,0,0,0,0,0,0,0,0,0,0,0,0,0,0,0,0,0,0,0,0,0,0,0,0,0,0,0,0],"sum_hessian":[3.0224655E2,4.165086E0,2.9808145E2,2.9622534E2,1.8561267E0,2.0393599E2,9.228935E1,1.8809386E2,1.58421335E1,1.8719921E1,7.356943E1,1.858607E2,2.233152E0,1.4770386E1,1.0717486E0,1.9387287E0,1.6781193E1,6.2005913E1,1.1563518E1,1.7313367E2,1.27270355E1,1.2251072E1,2.5193136E0,9.78572E0,6.995474E0,5.7770477E1,4.2354336E0,6.6268797E0,4.9366384E0],"tree_param":{"num_deleted":"0","num_feature":"4","num_nodes":"29","size_leaf_vector":"1"}},{"base_weights":[1.3673983E-2,-1.09160714E-1,1.8135823E-2,2.3051668E-2,-1.761245E-1,1.3536367E-2,1.3576223E-1,-1.0971483E-1,-2.9156052E-2,-5.3505644E-2,3.132373E-2,1.3658811E-1,6.1731793E-2,8.721102E-2,-2.089062E-1,3.4058832E-3,-5.5449355E-1,3.0932194E-1,8.166014E-3,-1.850955E-1,2.0755005E-1,-9.399433E-2,1.4185666E-2,-4.207886E-2,3.8440317E-2,2.3235753E-2,-2.2225039E-1,-7.163167E-2,1.1377222E-1,2.7981209E-2,-5.5672843E-3,1.8937372E-2,-2.3330061E-1,1.6102579E-1,-1.3215698E-2],"categories":[],"categories_nodes":[],"categories_segments":[],"categories_sizes":[],"default_left":[0,0,0,0,0,0,0,0,0,0,0,0,0,0,0,0,0,0,0,0,0,0,0,0,0,0,0,0,0,0,0,0,0,0,0],"id":54,"left_children":[1,-1,3,5,7,9,11,-1,13,15,17,-1,19,-1,21,23,25,27,29,31,33,-1,-1,-1,-1,-1,-1,-1,-1,-1,-1,-1,-1,-1,-1],"loss_changes":[5.1462203E-1,0E0,2.896009E-1,3.11877E-1,1.9819373E-1,3.246685E-1,5.0795436E-1,0E0,3.659724E-1,1.6317145E0,1.379608E0,0E0,7.422636E-1,0E0,1.2129618E-1,9.5562416E-1,